71291 200
</s> 0.002001 0.002210 -0.001915 -0.001639 0.000683 0.001511 0.000470 0.000106 -0.001802 0.001109 -0.002178 0.000625 -0.000376 -0.000479 -0.001658 -0.000941 0.001290 0.001513 0.001485 0.000799 0.000772 -0.001901 -0.002048 0.002485 0.001901 0.001545 -0.000302 0.002008 -0.000247 0.000367 -0.000075 -0.001492 0.000656 -0.000669 -0.001913 0.002377 0.002190 -0.000548 -0.000113 0.000255 -0.001819 -0.002004 0.002277 0.000032 -0.001291 -0.001521 -0.001538 0.000848 0.000101 0.000666 -0.002107 -0.001904 -0.000065 0.000572 0.001275 -0.001585 0.002040 0.000463 0.000560 -0.000304 0.001493 -0.001144 -0.001049 0.001079 -0.000377 0.000515 0.000902 -0.002044 -0.000992 0.001457 0.002116 0.001966 -0.001523 -0.001054 -0.000455 0.001001 -0.001894 0.001499 0.001394 -0.000799 -0.000776 -0.001119 0.002114 0.001956 -0.000590 0.002107 0.002410 0.000908 0.002491 -0.001556 -0.000766 -0.001054 -0.001454 0.001407 0.000790 0.000212 -0.001097 0.000762 0.001530 0.000097 0.001140 -0.002476 0.002157 0.000240 -0.000916 -0.001042 -0.000374 -0.001468 -0.002185 -0.001419 0.002139 -0.000885 -0.001340 0.001159 -0.000852 0.002378 -0.000802 -0.002294 0.001358 -0.000037 -0.001744 0.000488 0.000721 -0.000241 0.000912 -0.001979 0.000441 0.000908 -0.001505 0.000071 -0.000030 -0.001200 -0.001416 -0.002347 0.000011 0.000076 0.000005 -0.001967 -0.002481 -0.002373 -0.002163 -0.000274 0.000696 0.000592 -0.001591 0.002499 -0.001006 -0.000637 -0.000702 0.002366 -0.001882 0.000581 -0.000668 0.001594 0.000020 0.002135 -0.001410 -0.001303 -0.002096 -0.001833 -0.001600 -0.001557 0.001222 -0.000933 0.001340 0.001845 0.000678 0.001475 0.001238 0.001170 -0.001775 -0.001717 -0.001828 -0.000066 0.002065 -0.001368 -0.001530 -0.002098 0.001653 -0.002089 -0.000290 0.001089 -0.002309 -0.002239 0.000721 0.001762 0.002132 0.001073 0.001581 -0.001564 -0.001820 0.001987 -0.001382 0.000877 0.000287 0.000895 -0.000591 0.000099 -0.000843 -0.000563 
the 0.208665 0.393994 0.283550 1.408321 0.009905 0.137405 0.303895 0.505037 -0.251990 -0.106396 0.950497 -0.193165 -0.445333 0.394255 -0.063665 -0.610710 0.329110 0.711970 0.482317 -0.950364 0.174508 -1.122834 -0.006158 -1.071776 -0.830636 0.187907 1.422600 -1.210662 0.310452 0.241948 0.274834 1.309368 0.765259 -0.694440 0.325585 -0.750914 0.072194 -0.470841 0.693570 0.620663 -0.718761 0.726638 -1.313317 0.177202 -0.686794 0.095425 -0.017480 0.848304 0.766581 -0.035830 1.061144 -0.570566 -0.934768 -0.388611 -0.438621 -0.194760 0.571545 -0.576804 0.273177 0.374063 -0.330785 0.516811 -0.241220 -0.198361 -0.098541 -0.425684 0.205906 0.503341 1.090405 -2.447293 -0.482318 -0.162898 -0.183571 -0.609834 -0.990281 0.228923 0.062662 -0.037148 0.989358 0.614087 -0.394018 0.689761 -0.885687 -1.609602 0.574859 0.268009 -0.151994 -0.684357 0.747547 -0.837509 0.759002 0.998842 -0.394071 0.034735 0.744355 -0.531665 0.282050 -0.261877 -0.311401 0.514098 -0.203337 1.316721 0.485435 -0.313709 -0.096546 -0.192798 0.060689 -0.229554 -0.567879 0.198080 1.267997 0.102356 -0.311513 0.300906 -0.109373 -0.527518 0.175656 1.103266 0.836479 0.267728 -0.668194 0.162519 -0.451457 -0.559107 0.381045 0.306304 1.269150 0.118581 -0.544387 -0.188578 1.676382 -0.336576 0.990388 0.428694 0.651950 -1.022500 -0.015421 -0.539026 1.057517 1.280934 0.803607 -0.973275 -0.490256 -0.360617 -0.097022 -0.342530 -0.052424 -0.606617 0.269905 0.132596 0.172316 -0.369408 1.615854 0.045507 -0.610558 0.044851 0.249658 -0.125998 -0.357539 0.659508 -0.377306 -1.375439 -1.009259 0.479975 -2.155030 -0.372328 2.041356 0.777362 -0.022624 0.081867 0.506080 -1.029740 0.028887 0.514773 -0.663955 -0.469145 0.164261 0.357576 -0.365366 -0.291425 -1.990104 -0.022503 1.354052 0.870328 -0.609052 1.150785 0.252199 0.303271 -0.369087 -0.806736 -0.210706 -0.232302 -0.045645 -0.795594 0.230693 -1.046757 0.716508 -1.492846 -0.127907 -1.022696 
of 0.625240 -0.043328 -0.300900 1.089075 0.449707 -0.112959 0.373219 1.055247 -1.608528 0.263717 -0.028048 0.030501 0.138319 0.062637 -0.893762 0.014167 0.279293 1.455851 1.027778 -0.850797 0.455534 -0.717464 -0.624709 -1.135399 -0.931085 0.244383 2.428158 -0.935817 0.068575 0.009610 0.461523 1.382342 -0.297751 -0.972338 -0.312463 0.512892 -0.481949 -0.836042 0.462229 0.075744 -2.335572 -0.932688 -0.997811 0.407013 -0.537598 -1.124530 -0.386671 0.730384 1.541987 0.889747 0.264898 -0.331574 -0.582071 -0.572114 -1.144021 0.302069 -0.268798 0.090274 1.124891 -0.021371 -0.375470 -0.510833 -0.953712 -0.510226 -0.837046 0.214214 0.166123 0.104101 0.406974 -0.753742 -0.889691 -1.292568 0.441439 -0.214520 -0.423169 0.867484 -0.014502 -0.807329 1.492169 1.257980 -1.167664 0.851217 -1.478798 -1.281855 0.489284 -0.153268 -0.449444 -0.044475 0.328322 -0.147216 0.223427 0.334033 -0.759982 0.531732 1.135789 -0.429735 -0.306538 -0.702358 0.367086 0.167065 -0.858554 0.508992 0.059314 -0.073145 0.726566 -0.976964 -1.120986 0.252477 -0.660290 -0.192231 0.959193 0.479594 -0.486249 0.704889 -0.064750 -1.151213 -0.203709 0.865655 -0.169397 0.111073 -0.193790 -0.222641 -0.371131 -0.216169 0.586345 -0.020387 0.733475 0.199356 -0.427653 0.646189 1.730875 -0.154371 0.526873 0.347875 0.542898 -1.440293 -0.643614 -0.305258 0.260029 1.103683 0.105015 -0.193878 -0.602529 -0.971871 -1.405206 0.292415 -0.007188 -1.044597 0.946536 -0.397631 0.298517 -0.652969 1.085173 0.070834 -0.235868 -0.274421 0.479054 -0.910287 -0.573261 0.075404 -0.980278 -0.950696 -0.075782 1.345008 -1.332737 -0.491451 0.735603 0.603125 0.386077 1.182803 1.055774 -1.167989 0.171407 1.487795 -0.725045 -0.922925 0.009394 0.557122 0.038551 -1.033726 -1.673292 0.335158 1.324344 0.944261 -0.716155 1.350669 -0.191362 0.062990 -0.086037 -0.876583 -0.152915 0.965213 -0.562350 -0.589810 -0.147661 -0.448710 0.628865 -1.164261 -0.239592 -0.426018 
and 0.281843 0.137694 -0.117912 0.558080 -0.061268 0.440492 -0.058233 0.392118 -0.823281 0.220912 0.239559 -0.105899 -0.096674 -0.575398 -0.123575 0.006534 -0.111432 0.734175 0.515924 -0.544055 -0.992818 -0.877960 -0.182434 -1.456956 -0.435670 -0.302079 2.032577 -0.301624 0.515188 0.175752 -0.216438 0.911100 0.562755 -0.922092 -0.050987 0.143978 0.717683 -0.173148 0.088361 0.854473 -0.790624 -0.416357 -1.301200 0.448214 -0.916532 -0.248029 -0.453453 0.260304 0.708416 0.014008 0.495740 -0.291419 -0.474804 -0.052799 0.227713 -0.273703 0.423573 0.320055 -0.429889 0.185293 -0.577518 0.833906 -0.013772 0.172266 -0.723291 -0.062936 0.355674 1.064370 0.830600 -0.497645 -0.139085 -0.177287 0.679807 -0.485280 -0.495604 0.153129 1.023672 0.262039 0.746170 0.448764 -0.405628 0.603620 0.072447 -0.409910 0.661601 0.178183 -1.020137 -0.720308 -0.046001 -0.920562 -0.102820 0.290034 -0.586984 0.463818 0.676074 0.143593 -0.212907 0.515328 0.624678 0.314377 -0.530175 0.377782 -0.426311 -0.127601 0.137356 -0.084171 -0.791540 -0.204117 0.646165 0.094028 0.402300 0.043600 -0.243056 1.382713 0.502984 -0.340908 -0.136856 0.191098 -0.097613 0.125818 0.388506 0.195639 -1.297493 0.682388 -0.397209 0.543565 0.144708 -0.475862 0.131015 -0.085780 0.803197 -0.173345 -0.484514 0.418957 -0.195289 -0.394020 -0.028688 -0.290140 -0.261779 0.626516 0.331807 0.397438 -0.541208 -0.253865 -0.707330 0.799703 0.365520 -0.338443 0.720256 -0.033172 -0.226111 -0.543424 -0.060795 -0.603721 -0.025799 0.751600 1.078516 -0.211827 -0.851420 0.171743 0.028965 0.037650 -0.455340 0.527322 -0.764979 -0.167028 0.116079 0.149323 -0.029197 0.391753 -0.510390 0.127810 0.285020 -0.374029 0.075781 -0.291030 0.016588 0.682553 0.512765 -0.936179 0.479358 0.376343 0.027707 -0.375873 -0.522851 0.815579 -0.409161 -0.310114 -0.445404 -0.325160 -0.656136 0.548961 0.054177 -0.157817 -0.248447 -0.362285 0.183208 -0.042447 0.740984 0.256899 
one -1.270186 -1.374058 1.770752 -0.233224 0.705171 -0.594800 1.103086 -1.055204 1.179556 1.296230 0.970760 -0.611446 0.289700 -0.443454 0.241879 -0.528768 -1.327264 -0.646530 0.690276 0.857606 1.327042 0.365772 -0.606830 -0.438553 0.443720 0.792209 -0.690579 -0.120612 -0.752352 0.277564 1.108095 -0.231176 -0.194225 -0.801714 0.997382 1.611935 -1.053491 1.687732 0.153890 2.885762 1.125999 -0.245471 0.430524 1.276516 -0.124429 0.245950 -0.172702 -0.378177 -1.225362 -0.340653 0.771260 0.744109 0.543536 1.146591 0.211798 1.647416 -1.121429 1.023086 0.490334 0.355254 2.492622 -1.638385 0.083155 2.340337 0.435560 0.368212 -2.166196 -2.223393 -1.093025 1.161870 -0.042763 0.286160 -0.451798 -1.169183 0.456339 1.075437 -1.497837 0.290476 -1.817682 -0.237866 -2.406304 -2.558091 -0.109661 -0.518303 -0.024856 0.205463 0.971513 1.587871 -0.663216 -0.995358 1.582192 -0.768342 -1.281904 -0.408302 -1.213333 0.014537 2.127126 -0.843065 -0.774282 -0.141896 0.838668 0.556368 0.337371 1.711408 -0.006041 1.344240 2.044625 1.529442 -0.383457 -1.651474 0.746583 -0.750984 -1.926497 -1.229943 1.610015 -0.435806 0.190094 -0.224802 -0.025884 0.442518 0.565057 -0.559827 1.038065 -0.146719 -0.589946 -0.567508 1.224546 -0.082457 1.138647 0.644790 -0.320497 -0.154996 -0.049648 -0.633993 -0.646433 -0.711642 0.110350 0.569893 -1.390349 -2.100903 -0.561538 -0.889529 -1.782362 0.683964 -1.173299 2.264637 0.659549 -0.429647 -0.444684 0.098311 -1.438650 0.124951 0.783937 2.764011 0.149878 -2.013946 -2.360058 -3.923913 1.099441 -2.641129 -1.998194 0.011661 -0.950614 -0.719771 -0.059752 0.143618 1.406477 1.030225 1.105060 0.916464 -1.066198 1.578518 -0.625133 1.126500 -0.419629 -0.493431 0.040596 -0.824841 -0.474904 -0.062179 -0.711685 -0.689478 -0.736531 -0.976128 0.842663 1.293977 -1.097754 -1.630477 -0.806215 1.490059 0.157158 0.346577 1.754829 1.455417 0.877098 1.307080 -0.035046 0.189945 0.740944 0.666665 
in -0.589213 -0.179082 0.264849 1.075371 0.960800 0.074209 -0.199152 0.517877 0.405504 -0.521919 0.510495 -1.033455 -0.111320 0.083346 -0.065228 -0.899954 0.119982 -0.477390 0.382645 -0.790734 -0.415254 0.288652 0.172154 -0.219676 0.048399 -0.060151 2.043450 -0.265246 0.406175 0.771500 0.243671 1.716146 0.286879 -0.884402 -0.544049 -0.719715 0.236437 -0.355193 0.524522 0.723599 -0.966173 -0.164755 -0.873681 -0.035708 -0.948164 0.584005 -0.485105 0.857838 -0.200255 0.422606 1.070660 -0.566980 -1.223587 -0.458208 -0.587454 0.370663 0.949569 -0.515707 0.281039 0.772272 -1.085819 -0.506034 -0.444133 0.956805 -0.109667 0.253226 0.016077 -0.203608 -0.254451 -1.421147 -0.191473 -1.212990 0.098352 -0.469554 -1.368101 0.316302 1.416478 0.461563 0.677427 1.466478 -0.850536 -0.329701 -1.395398 -0.980059 0.646344 0.772820 0.182960 0.231449 0.753841 -1.236260 0.742125 0.616579 -0.463120 -0.250260 0.837507 0.144920 0.934070 0.892442 0.277687 -0.014301 -0.096146 0.240396 0.225366 0.582034 -0.308478 0.271016 0.702187 0.229337 0.388631 -0.801123 0.314414 0.382172 -0.213192 0.070282 0.367677 -0.621097 0.082533 0.424509 0.811474 0.000360 -0.540898 -0.087402 -0.243604 0.365594 -0.567022 0.499566 1.327501 -0.510208 0.305619 0.654887 0.536037 -0.028205 0.205522 0.116743 1.410915 -0.838546 -0.570048 -0.437278 0.400394 0.040491 1.246284 0.639361 -0.918725 -1.154442 -0.612901 1.616008 -0.740701 -0.362055 0.411772 -0.103879 0.496226 -0.552328 1.344832 0.428417 0.094941 -0.697823 0.844517 -0.849378 -0.389762 -0.633041 -0.932667 -0.961395 -0.286384 0.846782 -2.330097 0.328471 1.041781 0.070502 0.463093 0.463635 -0.124496 0.115608 0.102613 1.365719 -1.077219 -0.503066 -0.242132 -0.517976 -0.546474 -0.594888 -0.263380 0.391712 0.240865 -0.307622 -1.306814 1.468470 0.447659 -0.388358 -1.191063 -0.561921 -0.160928 -0.384348 1.170885 0.417907 0.478205 -0.776929 0.531333 0.401713 0.615035 -0.087532 
a 0.454643 0.649392 -0.178765 1.385462 0.964417 0.014948 -1.110269 -0.466473 -0.265118 0.105008 0.070017 1.178834 -0.625834 0.404359 -0.074265 -0.116921 0.827994 -0.455108 -0.530485 -1.161730 -0.517651 -1.236478 0.253738 -1.467382 -2.176262 -0.140202 0.338421 -0.812115 -0.181632 0.027675 -0.449615 -0.355270 0.147302 -1.287717 0.825917 -1.409763 -0.867811 -1.022960 0.293313 -0.825116 0.092336 1.423506 -0.612453 -0.772066 2.347187 1.538332 0.384025 0.246644 -0.366566 0.381381 0.242490 0.012782 -0.494476 -0.434495 -0.606124 -0.696610 0.112951 0.017772 0.735700 0.248278 0.856769 -0.298066 0.445758 -1.589680 0.212577 0.098303 0.086364 0.097268 -0.244206 -2.079916 0.949205 -1.495405 -0.163975 0.069403 -1.054095 0.470871 1.051632 -0.814816 0.701795 0.916144 -0.396305 1.391601 -0.599711 -0.791104 0.156855 -0.807159 -0.134626 -0.176408 0.624170 0.080723 -1.329795 0.962941 -0.314418 0.591426 0.182966 0.029329 0.042475 0.085661 -0.323968 0.818554 0.855016 0.727417 1.224247 -1.108768 -0.571922 1.251226 0.486460 -0.914514 -0.875508 0.511519 0.148456 0.419486 -0.193666 -1.133112 0.412904 -0.886917 0.268210 1.007391 0.657587 0.422833 -0.607022 -0.269444 -0.513123 0.650135 -0.749725 0.076600 0.685910 0.074700 0.547699 1.053092 0.636447 -0.739233 0.929657 -0.321122 0.809450 0.455965 0.886471 -0.493674 1.718405 0.718142 1.283751 -2.408849 -0.314945 -0.561137 0.451758 -0.890484 -0.479706 0.245957 -0.046672 -0.482596 0.302136 0.357984 0.256277 -0.917065 -0.437479 1.386301 1.203424 0.475993 -0.825052 0.662758 -0.408852 -1.460028 -0.952360 1.423969 -1.598520 -0.002534 1.268107 0.182953 0.435693 -0.297026 1.003636 -1.269357 -0.411225 0.602961 -0.169574 0.350020 0.067970 1.140323 0.083745 -0.677058 -2.027047 1.087299 1.344846 0.516173 -1.775008 0.487377 -0.610605 -0.832024 0.123691 -0.682691 -1.006360 -0.156652 -0.475360 -0.046010 -0.369798 -0.818812 0.133823 -2.289456 0.252482 0.044256 
to -0.508671 1.412584 -0.025913 0.107936 1.142372 0.399747 -1.529881 0.065856 -0.193848 -0.937017 1.201170 -1.032753 -1.757406 0.155122 -0.514520 -0.392045 1.026911 1.638173 -2.857649 -1.716800 -0.739553 -0.689482 -0.180568 -1.666223 -1.065837 -0.014865 1.241779 -0.884422 -0.694911 0.878501 -1.089604 2.026021 0.548307 -1.514951 -0.596433 -1.965313 0.601462 -0.211410 0.040499 -0.111109 -0.289637 0.979568 -1.296025 -0.212018 -1.147439 1.600865 -0.414808 2.552412 -1.145097 0.010659 -0.141438 -1.678841 -0.525008 -1.468045 1.239799 1.195842 1.130446 -0.164214 -0.772927 -0.005526 -0.286986 0.850938 1.517403 -0.405630 0.211043 -1.452232 -0.180732 0.940196 0.341744 -2.234047 0.463933 0.652484 1.140431 1.089984 -1.756916 -0.531812 1.541605 -0.050160 1.551804 0.484210 0.614343 1.339705 -0.798660 -0.052942 0.043715 1.041418 -1.360149 -0.748325 0.829229 1.098489 0.942882 0.900714 0.656143 -1.745448 1.112225 -0.129803 -0.268782 2.293228 0.481641 0.467212 -1.124931 0.568344 -0.267933 -1.199097 -0.971303 -0.984128 0.728293 -0.673271 -0.214380 1.669236 -0.245102 0.953008 0.859579 0.887706 -0.185082 1.139048 -2.034727 0.377894 0.385165 -0.100012 1.072911 0.771238 -2.961373 -1.326722 -0.296723 1.159926 0.070054 -0.319944 -0.275235 -0.221098 1.141016 -0.803615 0.965860 0.337512 1.503506 0.148935 -0.037552 -0.605238 1.446407 2.410301 0.418676 -0.274667 -0.551707 -0.800197 0.154917 -1.071891 -0.956396 0.093498 0.054428 0.093196 0.142484 -0.510668 1.788652 -0.423460 -0.782787 0.687669 -0.241439 2.196613 -0.120293 2.042485 0.020065 -1.067646 -1.564219 -0.786526 0.732058 -0.626178 0.720264 -0.129832 -0.740973 -1.848397 -0.466321 -0.772410 -0.593518 -1.280344 0.370250 1.022278 -0.296490 -0.144942 0.374342 -0.768105 -2.827534 0.317204 -0.341158 0.360990 -2.339656 -1.825839 -0.556698 0.310645 -0.424099 -0.271033 -0.701146 -1.520169 -0.406013 -0.970384 -1.139552 0.161081 0.561161 -1.859835 -1.132780 0.642142 
zero -0.737854 -1.537366 1.867296 0.194534 0.506362 -0.536481 -0.012318 -0.014741 -0.074307 -0.006659 1.430635 -0.558025 1.776190 -0.890093 -0.677452 0.413528 -1.673703 -1.487722 -0.364816 -0.195394 3.600772 -0.375291 -0.144828 2.256355 0.342176 0.602300 0.714578 0.539378 -0.826201 0.339278 0.050160 -1.099069 -0.618786 -1.269340 1.428515 0.756159 -1.087761 1.644171 -0.164345 2.524325 0.510365 -0.207479 -0.125754 2.445057 -0.373842 0.550835 -0.559083 0.102002 -0.480205 0.499719 1.171724 0.813031 -0.051066 0.837418 0.596058 2.400374 -1.177397 1.076448 0.675089 0.927509 2.019494 -1.083792 0.364865 3.160405 -0.082521 -0.929301 -2.662380 -2.355044 -1.529749 1.825045 -1.315934 0.403672 -0.855774 -1.538789 1.625473 0.765671 -1.139827 0.481096 -1.839723 -2.167421 -3.684307 -2.255473 0.211175 -0.865410 0.499258 -0.424461 1.674395 1.864311 -1.625261 -0.505718 1.945592 0.313359 -1.579601 -0.627118 -1.310454 0.450224 0.757600 -0.818850 -1.013950 -0.031971 0.392396 -0.362453 1.206405 0.905905 -1.323463 1.353290 0.918452 1.202356 0.694726 -1.765674 -0.404402 -1.509603 -1.473662 -0.205211 1.077344 -2.098786 0.464732 0.407228 -0.062601 1.218061 0.677849 -0.545320 1.022031 0.998090 0.008848 0.553190 0.728270 -0.565867 0.623796 -0.001537 0.437551 -0.107136 -0.480399 0.953853 -0.224926 0.500492 0.299397 0.386937 -1.274380 -2.063864 -0.503565 -0.818026 -3.130278 1.496836 -1.425670 0.809205 -0.664184 -0.957360 0.562890 0.767007 -0.374675 0.382470 1.645158 2.965796 0.787816 -1.768263 -2.296387 -3.318752 -0.043540 -3.648370 -2.075476 -0.358704 -1.220322 -1.172779 -0.376229 0.609584 2.717831 0.740253 0.473245 0.435230 -1.449738 1.277668 -1.239580 0.533966 1.075475 0.139948 -0.456967 -0.613693 -0.601868 0.978274 -0.956891 0.254668 -0.794075 -0.691511 0.635988 -0.585124 -1.338676 -2.182261 -0.329129 0.997281 0.744052 -0.301392 1.981294 1.420216 0.848009 2.626982 -0.016697 1.255001 -0.467460 0.295786 
nine -1.212188 -1.647173 1.889313 -0.856271 0.945827 -0.037565 1.232901 -1.154588 2.213313 2.270204 1.467081 -0.364298 0.463011 -0.950678 0.101457 -0.165403 -1.597187 -0.759999 0.068473 1.292982 1.754570 0.319901 -0.978809 -0.471356 0.522133 1.543731 -0.625702 -0.017752 -0.599045 0.098406 1.646349 -0.006096 0.300498 -0.818655 1.146193 1.909580 -0.240329 2.592394 -0.248036 4.148555 1.156564 -0.505894 0.510820 1.280758 0.077326 0.569653 -0.414964 -0.314679 -1.438831 -1.064228 0.008350 0.620969 0.707890 1.287084 -0.345044 1.796308 -1.617155 1.010702 0.655860 0.036990 3.017878 -1.285857 -0.275958 2.790236 1.313760 0.633513 -2.357705 -1.978060 -1.146342 0.942882 -0.115478 0.847860 -1.124803 -1.841123 0.776073 1.051577 -1.237061 0.476445 -2.184920 -1.223809 -2.795543 -2.343720 -0.243642 -0.323096 0.642145 -0.140011 1.170684 0.923004 -1.196614 -0.995585 1.990242 -1.170007 -1.358371 0.308303 -1.765903 -0.307742 2.507155 -0.604660 0.047527 -0.094510 1.126234 0.451796 -0.200285 2.119527 0.081582 1.822220 1.682536 1.972023 -0.618984 -1.546991 0.620952 -1.788217 -1.485903 -1.310629 1.802438 -0.574227 0.016726 -0.146447 -0.251438 0.038982 1.316298 -0.297400 1.053239 0.790385 -0.446209 -0.535850 0.997089 -0.642433 0.578067 0.747029 -0.721285 -0.519803 -0.269892 -0.772821 -0.512454 -0.319906 -0.534937 0.702180 -1.736778 -2.877575 0.002609 -0.780519 -2.062497 1.053662 -1.993008 2.905485 0.984803 0.234314 -0.722078 0.300661 -2.223815 -0.004708 0.203003 2.297166 0.700736 -2.232164 -2.071633 -4.075435 1.764434 -3.511472 -1.620782 0.007144 -0.915745 -0.731889 -0.244527 0.588616 1.631375 1.179066 1.680025 1.470194 -2.044928 1.528759 -1.022548 0.639738 -0.254457 -0.139755 0.079295 -0.909890 -1.027933 -0.580906 1.226208 -0.537568 -0.610369 -1.059966 1.567176 1.245402 -1.172205 -1.434338 -0.709982 1.359350 0.294603 -0.625000 3.096632 2.553753 2.452408 0.552130 0.433388 -0.233146 1.071529 -0.276629 
two -0.830918 -1.595319 1.602362 0.108763 0.429574 -1.041647 0.002864 -0.116510 -0.214589 0.043994 0.752371 -0.525183 1.079712 -1.020877 -0.644251 0.337883 -1.085510 -0.988188 0.447537 0.122475 1.976832 -0.163295 -0.289603 0.448244 -0.063474 0.402527 0.149751 -0.261195 -0.500326 0.057189 0.985463 -0.307795 -1.112272 -1.213087 0.853263 1.450686 -1.172222 0.919220 -0.037495 2.788561 1.469292 0.212685 -0.071125 1.281932 -0.275019 0.477198 -0.138559 -0.334598 -0.565532 -0.246098 0.853740 0.483294 0.104477 0.836907 0.859692 2.265883 -0.900070 1.220386 0.547487 0.220145 1.856972 -0.816341 0.324096 2.726897 0.342253 0.057233 -2.868455 -2.344748 -1.082159 1.968097 -0.414391 0.382037 -0.164866 -1.058876 1.034556 0.997326 -0.772879 0.250352 -1.364168 -1.006241 -3.291029 -2.665039 0.628380 -1.016182 0.129226 -0.331625 1.136432 1.876728 -0.346913 -0.192203 1.569083 0.214396 -1.643195 -1.315080 -0.888480 0.174917 0.636336 -0.579518 -1.078203 -0.519737 1.054863 -0.422362 0.555853 1.149306 -1.206030 0.946461 1.700598 0.793020 0.566759 -1.967865 0.655437 -0.558102 -1.762207 -0.666184 1.793162 -1.306560 -0.375530 -0.109721 -0.390663 0.773759 0.799794 -0.188486 0.820040 0.038762 -0.758597 0.336580 0.442858 -0.169525 1.004085 0.466654 0.772946 -0.001606 0.035006 -0.084870 -0.375432 -0.574003 0.972887 0.542143 -1.508098 -1.763752 -0.434071 -1.085234 -2.201281 1.547799 -1.507534 1.395305 0.128054 -0.958455 0.522767 0.079072 -0.526524 -0.126047 1.511779 2.533538 0.679694 -1.136856 -1.879003 -3.203987 0.778441 -3.050483 -2.011990 0.097068 -1.113465 -0.401970 -0.502786 0.503143 2.762457 0.522052 0.478329 0.676649 -0.683857 0.792726 -1.104290 0.529445 0.051776 0.129465 -0.750099 -0.994274 -0.546421 1.141954 -1.506932 -0.532335 -0.494287 -0.652059 0.075068 0.713612 -1.389628 -1.408243 -0.241534 1.563747 0.556745 0.238747 1.555725 1.292630 1.105693 2.468255 0.376133 0.952715 -0.460244 0.544642 
is 1.134031 -0.150888 -0.741114 1.924065 0.841846 0.770401 -2.123751 0.510983 -1.697511 -0.831978 0.964929 2.109304 1.320425 0.293938 -0.834716 0.413830 0.763724 -0.401882 -1.866866 -1.329658 -1.812941 -1.752248 0.901875 -1.679106 -0.984526 -0.157989 -1.494493 -0.320614 -0.553228 0.455953 0.411246 -0.475179 -1.493838 -1.536844 0.738969 -0.487514 0.323643 -1.296512 0.389989 -2.306438 -0.432646 1.194287 -0.316482 -0.971669 1.415213 0.509358 0.712294 0.655044 0.596656 0.479044 0.108581 -1.240145 -0.320614 -0.992245 0.133168 -2.348627 0.100554 -2.032353 1.220232 1.167953 -0.311086 -0.253027 -0.710329 -0.600705 -0.279500 1.948516 2.521840 -0.004524 -0.639634 -2.573126 1.223563 -1.662023 -0.690584 0.340698 0.641490 0.346132 0.837494 0.026497 2.251714 0.461844 -0.800622 0.549896 -0.061032 -0.209985 -0.805406 0.833377 0.855705 1.644064 0.282171 -1.003103 0.683267 1.697133 -0.600042 0.183249 -0.379322 -0.249601 -0.719861 -0.426351 -1.030672 -1.026265 -0.044494 0.934775 1.041139 -1.364890 -0.747748 -1.811130 1.391438 -0.184079 -0.569261 -0.662966 0.362876 0.815540 1.001374 -1.000889 0.314213 -0.930659 -0.197321 0.654288 2.159619 0.280419 -1.262638 0.533642 0.171342 0.602632 -0.634968 -0.915214 0.350231 0.950539 0.725158 0.270737 1.291853 0.869045 0.623440 -0.340565 0.845643 1.541087 0.940609 -1.555849 2.000914 1.304495 -0.317053 -0.783708 0.071873 -1.741222 -0.699231 -3.232690 0.270348 -2.536855 0.116105 -0.668737 2.708685 0.809912 0.293348 0.222324 0.061368 2.106304 1.675043 1.768603 0.673388 0.057095 -0.776772 -0.615264 -0.065255 1.664411 -2.198153 1.471549 0.744968 1.440522 0.442839 -1.432730 0.227379 -2.854496 0.063628 2.670308 -0.724104 -0.778874 0.075202 -0.852913 0.109896 1.531774 -2.342148 -0.157315 1.494533 2.374811 -1.109943 0.128750 1.814061 0.846442 0.251435 -1.845927 1.034699 0.002136 -1.782005 -1.084004 -2.791606 -2.814621 -0.952056 0.828471 -0.255907 0.382635 
as 1.824645 -0.694338 -0.030159 0.849492 0.812830 0.981344 -0.179288 0.355094 0.026683 0.326244 0.977637 0.048788 -0.947273 0.376074 1.859615 -0.513694 -0.466485 1.781214 -0.091269 -1.370474 -0.730658 -1.608577 0.317253 -2.093301 -0.949314 -1.834296 0.499420 0.771249 0.567756 1.013252 -0.432439 0.619303 -0.120290 -1.812499 0.781102 0.230304 0.154718 -2.524003 0.075776 -0.963707 0.614659 0.308156 -0.588154 -0.323872 0.522337 -0.451960 -0.745615 0.791959 0.382093 0.785119 0.096638 -0.976203 -1.132002 -0.595547 -1.019282 -0.611630 0.434139 0.272137 -0.716828 0.445268 -1.736132 0.777943 -0.343180 -0.862095 -0.192057 2.278521 0.471790 1.298000 -0.204260 -1.594064 0.017882 -1.600661 0.365335 -2.233318 -1.657456 -0.638825 1.932782 0.773312 1.604548 0.333077 -0.000222 0.082497 -0.931909 0.393875 0.523600 -0.705946 -1.291730 0.331249 0.967776 -0.801215 -0.409122 0.573270 -0.513608 0.951579 -0.285405 -0.574776 0.017652 1.702115 -0.197794 0.394680 -0.319286 0.864931 -0.548392 -0.549630 1.659060 -0.509608 1.051391 -1.031052 0.318765 -0.416912 -0.434354 1.133929 0.629985 0.688328 0.532102 0.217398 -0.414824 1.470808 -1.082889 0.654822 -1.435135 0.026294 -0.429798 0.047548 0.391616 1.183362 0.956968 -0.194880 0.265942 1.267870 0.873694 0.731370 1.289847 0.342017 0.692420 0.791434 -0.289318 -0.822981 1.030438 1.333524 1.056769 -0.552028 0.105496 -2.209850 0.335841 -0.897613 -0.089169 -0.318269 0.680832 0.681128 1.395178 -1.030815 0.411051 -1.237525 0.812773 0.489128 1.340217 1.080839 -1.427374 0.346495 1.481200 -0.724484 0.148634 0.884692 -2.077576 0.328440 -0.842728 -1.304025 -0.395055 -0.849476 -0.734951 0.436385 -0.858999 0.288663 -0.111350 -0.654599 -0.332247 0.745674 -0.481539 -0.807803 -0.445978 -0.930386 0.473167 -0.391004 0.079869 0.940548 0.375191 1.569850 0.374004 -0.418697 0.982985 -0.328535 -2.141976 -0.859287 -1.537407 -1.736609 0.118546 -0.915046 0.898266 -0.465909 
eight -1.350682 -1.156982 1.722619 -0.250269 0.451841 -0.441635 0.895307 -1.086213 1.303572 2.201631 0.846115 -0.477289 0.122267 -0.028556 0.582199 -0.441999 -1.466091 -0.692417 0.663188 1.204323 1.746405 0.084259 -0.964199 -0.270782 0.449515 0.983619 0.064715 -0.025421 -1.223198 0.505841 1.162155 0.235328 -0.326462 -0.750476 0.330859 2.120886 -1.180750 2.242956 -0.199882 3.493188 0.971100 -0.490995 0.504886 1.483237 -1.121598 0.307772 -0.413356 -0.876543 -1.361515 -0.521138 0.614737 0.609748 0.841253 1.164542 0.310121 1.685032 -1.590124 0.920837 0.579283 0.396716 3.165195 -1.570323 -0.288628 2.184843 0.537610 0.696056 -2.297484 -1.775653 -1.081242 0.931213 0.221328 0.628431 -0.185298 -1.429231 0.935853 1.112783 -1.843860 0.008058 -2.088352 -0.196473 -2.370441 -2.501585 -0.035065 -0.412289 0.010128 0.586039 0.842985 1.108732 -0.915461 -0.731772 1.723077 -0.903647 -1.434150 -0.460259 -1.396918 -0.179613 2.244726 -0.672153 -0.443569 -0.072652 0.585475 0.144382 0.207486 1.603266 -0.431268 1.681555 2.132647 2.167547 -0.231199 -1.866306 0.832321 -0.664451 -2.076387 -1.790200 1.505510 0.023155 -0.128177 0.044206 -0.250692 0.269777 0.768906 -0.769356 1.295029 0.376752 -0.670577 -1.038734 0.924692 -0.516538 0.888469 0.102223 -0.451054 -0.213918 -0.669901 -0.683822 -1.032585 -0.442146 -0.055441 0.645792 -1.671694 -2.615180 -0.075729 -0.722794 -2.115350 0.955984 -1.806955 2.110484 0.944756 -0.724416 -0.842919 0.114657 -1.657633 -0.170961 0.655935 2.732924 0.008197 -2.173156 -3.256829 -4.178332 1.208901 -2.808972 -1.928686 -0.204339 -1.053870 -1.082740 0.528150 0.424304 0.903181 1.320380 1.060749 1.349491 -1.370132 2.333909 -0.676641 1.088025 -0.123335 -0.214171 -0.031136 -0.816965 -0.444511 -0.521685 -0.468244 -0.720319 -1.108963 -1.305938 0.977969 1.902603 -1.400141 -1.923647 -0.881680 1.662962 -0.102638 1.049675 2.172806 1.714773 1.117306 1.601363 -0.515046 0.372887 1.349883 0.927339 
for 1.486953 -0.146513 0.136606 0.393382 0.812270 0.139467 -0.515978 0.871690 -0.349377 -0.615975 -0.394458 0.512852 0.093739 -0.677820 0.139254 0.111187 0.235476 0.005668 -0.820819 -2.621370 -0.362976 0.737066 0.578631 -1.146696 -1.323042 -0.340010 2.110225 -1.041780 0.012043 -0.200115 -1.059736 -0.992360 0.585764 -1.421722 -0.695723 0.018420 -0.050482 0.325152 -0.504234 -0.665036 -0.606007 -1.059170 0.728120 -0.871508 1.474928 -0.923925 -0.401218 0.910486 0.439968 0.177818 -0.568786 -1.624633 -0.826244 0.567600 -0.187495 0.322672 0.821091 -1.007581 -0.513588 1.363510 -1.173311 -0.688383 -0.879728 0.552682 0.563180 0.121389 -0.435645 -0.133499 -0.161379 0.155421 0.695691 -0.120676 0.758754 0.573917 -0.542544 -0.746448 1.706560 -1.564725 2.909656 0.062773 -0.448881 0.938889 -0.865971 -0.690776 0.395478 0.776662 -1.704407 -0.528300 0.145675 1.040261 -1.108486 0.791767 -2.252941 -1.182425 0.541427 -0.573121 0.143174 1.402485 0.819421 0.164986 1.409653 0.355615 0.491452 0.002965 0.336167 0.051490 0.268386 -0.198756 0.017269 -0.228924 0.521289 -0.210445 -0.773327 1.238399 0.998522 -0.816706 -0.150278 0.274477 -0.021792 0.302363 -0.296263 -0.001491 -1.195738 0.445680 0.056250 0.163612 0.203727 0.255732 0.186791 -0.169684 1.107435 -0.331767 0.364827 0.615205 0.675338 -0.892107 -0.596822 -0.846816 1.372847 2.878036 -0.018168 -1.208435 -0.281661 -1.701728 -1.149919 -0.609330 0.815243 -0.099681 1.196335 -0.290037 0.834303 -1.188450 0.079019 -0.723143 1.215037 1.733322 1.140092 1.277094 -0.275968 0.469091 -0.651503 -1.513030 -1.403135 0.350077 -0.905202 -0.069354 0.926963 -0.418434 0.256008 -0.292525 0.840519 -0.991503 -0.170309 0.559956 -0.808311 -0.338844 -0.324594 0.314160 0.540105 0.559976 -0.333380 0.546032 -0.248696 -2.821115 -1.238370 0.138991 -0.473546 -0.409638 0.010349 -0.463721 -0.378302 -0.468282 0.141791 1.122284 -0.974735 -1.185947 0.856629 0.195436 -1.232344 -1.169257 
s -0.567035 -0.476386 0.789391 0.820157 1.327026 1.025748 1.370267 -1.211856 1.330473 0.610969 1.802190 -0.088935 0.080139 0.062858 -0.639286 0.027751 0.236278 0.264453 -0.237386 -0.052499 0.412949 -0.760370 -0.897137 -0.378377 0.125739 1.483656 0.510989 -0.988462 -0.023992 0.657423 -0.000674 0.718817 1.162892 -1.229762 0.103025 -0.189956 0.799819 0.501466 -0.517071 1.765846 -1.423780 -0.207641 0.105681 0.982000 1.841340 -0.386810 -0.758814 0.535268 0.585817 -0.865102 -0.167320 0.331149 -0.064519 0.898592 -0.211189 1.064223 -1.043425 0.184706 0.040386 0.086005 0.600007 0.227390 -1.188241 0.261678 0.674891 0.750432 0.177179 -0.194812 -0.476787 -0.562103 -0.374234 -0.383722 -0.320423 -0.988020 0.004071 0.498837 0.532562 0.092246 -0.434449 -0.210138 -1.398753 -0.302937 -1.095614 -0.405525 1.250819 -0.214312 0.710053 -1.103436 -0.022429 -1.236150 0.069618 -1.121936 0.179007 0.180353 -0.439835 -0.364780 -0.552535 -0.021029 0.861827 2.443649 0.027595 0.519803 1.186836 0.133212 -0.454810 0.043358 -1.049796 1.020934 0.600136 1.134842 -0.408292 -1.898010 -0.243813 -0.108548 0.224964 0.831570 -0.256375 0.192755 0.782994 -0.772138 -0.629070 -0.113793 1.139870 -0.578730 0.030840 -0.028104 0.748570 -0.763510 -0.009555 1.010268 0.927538 -0.868803 0.306130 -0.914863 -0.509233 -0.493063 -0.041362 -0.547906 -0.257298 -0.409241 0.424937 -1.723127 -0.768963 -0.596284 -0.795695 0.163485 0.488585 0.582510 0.639138 0.975543 -0.991919 0.642681 0.205365 0.647587 0.296320 -1.309985 -0.530013 -1.176528 -0.275817 -0.915151 0.288131 -1.020187 0.003555 0.445432 -0.678970 -0.861319 -0.271183 1.689124 0.755729 0.564735 -0.780429 0.806876 -0.358059 0.954236 -0.796044 -0.452644 1.119854 -0.431882 -0.004364 -1.083075 -0.343331 -0.602057 1.596249 -0.577135 -0.209074 0.928414 -0.979780 -0.722939 0.676698 -0.202067 -0.521803 -0.442882 1.597788 0.325018 1.430278 -0.765122 0.349036 -1.939340 0.310397 -1.637182 
five -0.881237 -1.303753 1.954401 -0.012676 0.569237 -0.538238 0.725676 -0.834171 0.135882 1.036882 1.062068 -0.772325 0.562229 -0.584347 0.244620 0.091059 -1.507153 -1.092489 0.356560 0.132528 2.184452 0.339969 -0.425038 0.264442 0.467571 0.528950 0.122816 -0.038002 -1.122101 0.378183 0.656608 -0.239257 -0.410116 -0.876819 1.092061 1.499528 -1.427780 1.964449 -0.011853 2.646358 0.870748 -0.195846 -0.031388 1.549655 -0.624316 0.221813 -0.029296 0.294009 -1.010168 -0.022513 0.890641 0.832904 0.342112 1.269376 0.793137 1.843214 -1.184790 0.947968 0.912939 0.434672 2.561646 -1.114800 0.301165 2.252366 0.239554 -0.198389 -2.508440 -2.296684 -1.060475 1.601458 -0.555970 0.361955 -0.904823 -1.374546 1.141853 1.355680 -1.916843 0.477755 -1.920230 -0.845519 -2.803518 -2.848280 0.761067 -1.184773 -0.009845 0.073033 1.300848 1.849729 -0.938661 -0.483820 1.626057 -0.507906 -1.419003 -0.916512 -1.287681 0.016789 1.244439 -0.563098 -1.098211 -0.414761 0.196294 -0.166128 0.428004 1.172089 -0.450426 1.607033 1.321007 1.411866 0.112480 -2.312075 0.255626 -0.608923 -1.729670 -1.155833 1.355487 -0.906932 -0.202525 -0.192826 -0.373733 1.171167 0.861688 -0.419861 0.850811 0.160474 -1.015721 -0.439189 0.293883 -0.022238 1.245000 0.652079 0.050414 -0.039166 -0.793631 0.022830 -0.241112 0.027351 0.860815 0.313844 -1.339843 -2.219496 -0.823193 -0.803357 -2.658986 1.274466 -1.160745 1.314013 0.405807 -0.928990 0.325328 0.362974 -0.834325 -0.086776 1.390776 2.658725 -0.143857 -1.449103 -2.793794 -4.049530 1.067122 -3.050279 -2.167866 0.261932 -1.057371 -0.969582 0.023615 0.537643 1.934241 0.971200 0.755664 0.769079 -0.611841 1.414174 -0.587067 0.698807 0.052043 0.033775 -0.193754 -0.671011 -0.263698 0.585628 -1.236357 -0.674215 -0.875201 -1.031127 0.496405 0.821940 -0.934105 -2.251292 -0.464033 1.379017 0.058428 0.679226 1.077049 1.534358 0.938909 2.545442 -0.295840 0.542946 -0.074628 0.868815 
three -0.874767 -1.551004 1.532366 0.183300 0.177361 -0.488313 0.464147 -0.377749 -0.163507 0.877512 0.816219 -0.872100 0.632071 -0.445743 0.012709 0.340907 -1.575726 -0.820293 0.534439 0.628540 1.579696 0.560359 -0.523480 0.128082 0.183454 0.414879 -0.118224 0.028662 -0.268189 0.069016 0.743807 0.030362 -0.992128 -1.079748 0.568210 1.395029 -1.525839 1.466707 0.013897 2.737269 1.132841 -0.130313 0.233706 0.991126 -0.343358 -0.030935 -0.172915 -0.089582 -0.610065 -0.090056 0.453488 0.368937 0.377660 1.396384 0.884931 2.142611 -0.872071 0.997412 0.999857 0.394513 2.721797 -0.890264 0.036895 2.207639 0.129234 0.056654 -2.121103 -2.722115 -0.978368 1.661806 -0.232528 0.233857 -0.591494 -1.000204 0.932157 1.287388 -1.754278 0.553970 -1.976769 -0.762326 -2.907413 -2.500818 0.726860 -0.736723 -0.230672 0.160320 1.110735 1.972667 -0.504665 -0.497894 1.915489 -0.053961 -1.511759 -1.120322 -0.951325 0.321727 1.018410 -0.701331 -0.819106 -0.645945 0.639775 -0.271896 0.366619 1.054250 -0.205255 1.056759 1.470049 1.419097 -0.010492 -2.336593 0.528794 -0.568827 -1.771833 -1.068022 1.557742 -0.987010 -0.060504 -0.208937 -0.656659 0.863477 1.049017 -0.557092 0.861300 -0.355007 -1.112781 -0.486558 0.145190 -0.245975 1.360070 0.408406 0.181771 -0.021954 -0.313712 -0.170277 -0.617304 -0.598575 0.924797 0.677641 -1.733157 -1.943522 -0.406119 -1.046287 -2.168490 0.975903 -1.628412 1.400069 0.258962 -0.945957 0.198171 0.003353 -0.674014 -0.168186 1.470795 2.264320 0.072923 -1.212727 -2.823390 -3.749378 1.001005 -2.440344 -1.968928 -0.010983 -1.098548 -0.410369 -0.177169 0.579396 2.010794 0.910413 0.688581 0.625821 -1.092218 1.110385 -0.635124 0.464691 -0.128849 0.098571 -0.364277 -1.030791 -0.152851 0.693003 -1.230326 -0.389244 -0.792337 -0.897096 0.505863 1.290676 -1.106665 -2.082154 -0.625621 1.966086 0.406551 1.288939 1.186432 1.096105 0.839863 2.526546 -0.435641 0.687870 0.569993 1.213439 
was -2.355718 1.713032 2.746632 -0.533581 0.350458 -0.734053 1.485043 -2.182167 4.200994 1.001064 0.505818 1.120714 -0.672157 1.468749 0.783668 -1.878951 0.526327 -0.737936 -1.733037 -1.529336 0.749719 -0.574621 1.316691 1.811254 -1.304055 0.412317 1.281130 -1.294350 -1.155976 0.899992 0.926327 1.001510 0.590178 -1.301711 -0.041428 -0.494819 0.203415 0.072927 -0.956746 -1.673232 0.037300 1.215738 -2.000538 0.323180 0.506351 0.487920 -0.016046 0.025178 -0.023884 -0.458735 0.566411 -1.248960 0.206515 -0.963198 -0.416123 -0.383519 -0.197246 -1.457259 1.486062 1.803734 1.021514 -0.694630 -0.088484 1.009393 0.264709 2.315340 1.915151 0.041131 -0.316769 -3.928597 2.075835 -0.461745 0.181024 -0.791193 -1.032114 0.675763 0.396867 0.171805 0.942898 1.110741 -0.690633 -0.352519 -0.820541 0.399835 0.862025 0.932731 0.390835 -0.352556 1.113698 -1.198264 -0.425911 1.092209 -0.307477 0.774148 -0.025881 0.393618 0.213295 1.483489 -0.926580 -0.893352 0.347575 1.647016 1.589928 -0.735080 -0.178141 0.838349 1.884923 0.536034 -0.325941 0.663441 0.592113 -1.431939 0.432339 -1.896547 1.030601 0.226577 0.142621 -0.458168 1.932211 -0.644543 -0.506018 2.484111 -0.668149 0.011753 -1.123556 -1.640361 1.105572 -0.703020 1.885785 0.691437 0.444016 0.634713 1.708842 -0.189331 0.942784 -0.239483 0.033708 -0.426732 1.567331 1.074566 -0.886516 -1.205132 -0.315695 -1.967618 -1.277527 -1.036904 0.702074 -0.879328 -1.277209 1.304220 -0.085816 0.710486 1.566057 1.306821 -1.687208 -0.782725 -2.586768 -1.075694 2.453403 1.099372 -0.619067 -0.124611 -0.633350 0.260979 -1.368634 0.484676 -1.120950 1.743802 -0.922324 -0.830712 -1.250563 1.788987 0.641726 0.593126 -1.530815 0.415423 1.510084 -1.815428 -1.150339 -0.721956 1.610026 -0.275283 -1.158324 0.835180 0.171517 2.404121 1.802042 -0.350062 -0.374289 0.311474 -0.273383 -1.390585 0.319846 1.001655 0.968416 -2.852964 -0.104368 -1.643161 1.033589 -1.887740 
by 0.458675 0.105032 -0.648868 1.019288 0.283101 -0.767775 0.432081 -1.030117 0.378636 2.030769 -0.996190 -0.236320 1.318638 0.585674 0.299677 0.417458 -0.461483 0.115954 -0.690369 -1.573448 -0.235832 -0.458309 2.100469 -0.482705 -0.779634 -0.865328 2.302452 -0.569583 0.014306 0.537564 0.743875 -0.109166 0.147265 0.060990 0.112266 -0.434808 0.196062 1.105480 -0.314883 0.017856 0.865188 1.396420 -1.023578 0.948636 0.520345 0.754086 -0.364630 0.505864 1.014389 -0.380563 0.160588 -1.355518 -1.217517 -0.154237 -0.727242 0.042337 0.472503 0.106105 0.387785 0.375202 0.339211 0.176296 -0.046071 -0.225359 0.755648 0.165083 0.109901 0.611793 0.099451 -1.492959 0.022314 -0.814877 1.073483 -1.761044 -0.540550 -0.377253 1.805161 1.325248 0.098500 -0.444615 0.145801 0.473039 0.053675 -0.977910 1.252811 -0.000408 -0.834672 -0.641143 1.107830 -0.966040 0.355199 -0.547306 -0.769180 0.444658 -0.731881 -0.119847 0.470090 -0.096832 -0.091664 0.494707 -2.189884 1.800416 -0.435976 -0.492489 -0.056729 -0.127536 -0.042134 0.976920 1.342591 1.235686 0.949390 -1.653332 -1.399253 -1.113336 0.959020 0.033272 0.187529 1.334586 -0.356646 0.575274 -0.147994 -0.302540 -0.729316 -0.146439 -0.231158 0.705270 1.426187 -0.556290 0.897927 0.257518 1.524981 -0.147400 0.342451 0.064618 -0.210857 -0.241034 -0.521737 0.751106 1.082444 0.515352 0.407046 -0.000473 -0.542333 -1.570976 -2.180105 0.681318 1.359471 -0.202647 -0.652276 0.587611 -0.857711 -1.020767 0.437754 -0.713096 -0.668682 1.665681 0.548734 -0.319198 0.744274 1.530735 -2.433700 -0.599103 -1.530218 -0.009287 -2.644748 -0.662790 0.744620 -0.450083 -0.573965 0.610044 -0.017174 2.945251 1.491700 -0.026852 0.305227 -0.832563 0.170554 -0.849321 -1.096300 -0.835085 1.116167 0.261089 1.301187 0.333429 -0.858880 2.293235 1.003012 -0.268520 -0.612756 -0.870354 -0.903410 -0.245777 -0.664854 -0.517025 -0.435963 -0.544161 0.063088 -0.732365 1.159707 -1.657136 
that 1.871520 0.358359 -1.808959 1.263408 -0.283863 -1.793714 -0.901701 -0.380045 -0.990419 0.061237 0.603816 0.695144 -0.966790 -0.048301 -0.635809 -0.601811 0.333270 0.874501 -0.588553 -1.921932 -1.682987 -0.320136 1.104719 -1.940162 -1.574805 -0.514124 0.014099 1.058853 1.810029 1.262414 0.766882 1.852726 1.303640 0.684043 0.528154 -2.576926 -0.439788 -1.586048 0.971663 -1.940966 0.509088 2.302565 0.688855 -0.406572 0.853676 0.126982 -0.940700 0.654149 -0.170093 1.441759 0.075016 -1.053735 -0.747718 -0.768531 -0.747469 -0.221630 1.406186 -0.128767 0.172955 1.279327 -2.777077 1.438547 0.994748 -2.229447 1.891552 0.047673 -0.236191 1.614310 0.331433 -2.128322 -0.491799 -0.742594 0.897866 1.323392 -1.436677 -1.555532 1.391937 0.320560 1.199862 0.210370 1.069973 1.743199 -0.492043 -0.480245 0.285587 0.836095 -0.348408 1.394767 2.035397 1.713753 0.108948 0.986102 1.423453 -0.397977 0.004007 1.255641 -2.042398 1.613516 -0.748350 1.195001 -0.566522 0.968831 0.034185 -1.187599 -0.240992 -0.565807 -0.559003 -1.740616 -1.112927 0.859742 -0.809266 -1.323770 0.272284 1.815215 0.233538 0.184321 -1.700461 -1.154046 1.550415 -1.426257 -1.465892 -0.182559 -2.816254 -0.324619 0.819910 1.627802 0.319617 -0.272090 -0.243510 0.343377 0.145983 -0.349519 3.565766 0.657967 0.857102 -1.437894 0.849896 -0.720356 -0.173025 1.686164 0.518476 -1.165708 -0.060992 -1.093514 0.011760 -0.466741 -2.153714 -0.581692 0.001221 1.722157 0.599199 -0.082787 0.355836 -0.172261 -0.651191 0.434942 0.441631 1.741608 0.052654 2.640147 0.669364 -1.487663 -0.958957 -0.447842 -1.855893 -2.036905 1.687796 -0.477800 -0.020695 -1.111914 -0.367056 0.755495 -1.008199 -0.132271 -0.519416 -0.123211 0.016781 -1.135322 1.117637 -0.264977 -2.587991 -0.971226 -0.322493 -0.075187 -1.236874 -0.316481 0.431013 -0.750456 -0.557299 -1.858104 0.624290 -2.726349 -1.847778 -2.232105 -1.825110 -0.058694 -0.012872 -0.647078 -0.314579 1.581870 
four -1.399372 -1.464798 1.662974 -0.038847 0.563816 -0.544636 0.814716 -0.588313 0.369803 1.249785 0.837929 -1.000612 0.726616 -0.436764 0.156206 -0.106383 -1.430752 -0.904897 0.465305 0.510506 1.787739 0.216165 -0.792213 -0.152497 0.020596 0.920309 -0.129182 -0.135137 -0.677982 0.036950 0.885673 -0.062459 -0.760749 -1.087552 0.964797 1.751087 -1.555172 2.027651 -0.247839 2.780085 1.307567 -0.500170 0.244198 1.127413 -0.476215 0.022505 -0.369959 -0.235293 -0.940973 -0.301557 0.602912 0.563218 0.797258 1.152643 0.600622 1.839237 -1.223750 1.064478 0.667721 0.101490 2.507340 -1.002601 0.251909 2.370146 0.083795 -0.144118 -2.746236 -2.451400 -0.908238 1.762289 -0.209961 0.466314 -0.401127 -1.005088 0.798720 1.398383 -1.686411 0.457536 -1.965384 -0.634483 -2.669376 -2.656589 0.793794 -0.968834 0.299377 0.026551 1.197318 1.801002 -0.362464 -0.594338 2.068301 -0.101942 -1.528448 -0.948448 -1.129661 0.091452 1.752365 -0.875489 -0.901723 -0.532741 0.652440 -0.346104 0.144797 1.392909 -0.500242 1.614946 1.611492 1.646054 -0.289858 -2.298193 0.594948 -0.759103 -1.909992 -1.029806 1.476447 -1.067989 -0.036270 -0.154992 -0.506228 1.079818 0.712644 -0.589203 1.059184 -0.116932 -0.991275 -0.505563 0.333666 -0.282706 0.956789 0.534537 0.248192 -0.077400 -0.195387 -0.086976 -0.362251 -0.090044 0.671294 0.639643 -1.556428 -2.189139 -0.388598 -0.774003 -2.069503 1.036495 -1.666145 1.258339 0.629357 -1.007326 0.037080 -0.474757 -0.810011 0.145699 1.339882 2.482717 0.036811 -1.374851 -2.814610 -3.800708 1.125090 -2.761201 -1.760773 0.218746 -0.968611 -0.691850 -0.226588 0.413525 1.983463 0.950856 0.720032 1.057310 -0.829062 1.493771 -0.320970 0.736931 0.227182 0.103169 0.015660 -0.692358 -0.505343 0.232323 -1.061403 -0.636980 -1.089503 -1.270370 0.504627 1.366836 -1.084765 -1.825609 -0.566860 1.982757 0.131281 1.089680 1.402207 1.282251 1.036906 2.199239 -0.254432 0.638524 0.328822 1.001745 
six -1.501678 -1.320098 2.151438 0.023950 0.676397 -0.511032 0.832351 -0.996469 0.265145 1.689559 0.996044 -1.008186 0.168554 -0.351890 0.190176 -0.221437 -1.364964 -0.765360 0.654841 0.411856 1.615259 0.297599 -0.738307 -0.195191 0.590324 0.786573 -0.067248 -0.023795 -1.010428 0.257809 0.889461 -0.516269 -0.622239 -1.161252 0.669138 1.999091 -1.505666 2.087316 -0.300541 2.843516 1.155925 -0.590110 0.304969 1.394087 -0.998626 0.345128 -0.036720 -0.409356 -1.405960 0.115770 0.578719 0.729349 1.246535 0.915898 0.617602 1.943951 -1.695953 0.840132 0.519967 0.802634 2.914147 -1.481349 0.134103 2.283964 0.122226 0.439353 -2.578057 -2.070773 -0.731564 1.510495 -0.296817 0.770073 -0.495636 -1.315246 1.173922 1.536218 -2.106338 0.446247 -2.342453 -0.637248 -2.480860 -2.702639 0.243748 -0.691530 0.032019 0.315161 1.050409 1.582939 -0.903847 -0.423590 1.812542 -0.309449 -1.717212 -0.645853 -1.591985 0.050483 1.785483 -0.795325 -1.310535 -0.276248 0.709277 0.071928 0.200237 1.559668 -0.268486 1.780966 1.846015 1.486691 -0.128511 -2.281411 0.086411 -0.372207 -2.295552 -1.408146 1.834151 -0.508519 -0.055117 0.179295 -0.395955 0.551445 0.620768 -0.612104 0.793661 -0.154638 -0.991893 -0.758625 0.392127 0.091511 1.205434 0.547983 0.034221 -0.285151 -0.424953 -0.584135 -0.573938 -0.359021 0.658364 0.499440 -1.536314 -1.984874 -0.105070 -0.880228 -2.312887 0.774280 -1.737492 2.197803 0.852907 -0.659399 0.226507 0.289484 -1.089336 -0.409134 0.990008 2.671628 -0.008390 -1.639097 -3.090729 -4.218988 1.211575 -2.614421 -1.881347 -0.536287 -0.831389 -1.114440 0.318707 0.320763 1.508754 1.344658 0.730034 1.009841 -0.792096 1.849249 -0.406008 0.832822 -0.167583 0.075367 -0.129486 -0.566260 -0.336311 0.253199 -1.191797 -0.350083 -0.932320 -1.135941 0.981127 1.165796 -0.926410 -2.027758 -0.381839 1.452446 0.031138 0.903740 1.365681 1.776782 1.016304 2.308891 -0.538025 0.333512 0.511133 1.192203 
seven -1.397262 -1.372871 2.032762 -0.100069 0.403707 -0.482065 1.368256 -0.902154 0.789796 1.793066 0.804150 -0.704709 0.366921 -0.503288 0.790257 0.081834 -1.390297 -0.474181 0.723895 1.042524 1.414285 0.388821 -0.896961 -0.832806 0.707239 1.161841 -0.293812 0.200003 -0.969533 0.336303 1.228054 -0.053508 -0.335558 -1.012382 -0.179546 2.467901 -1.004256 2.353844 -0.220410 3.269073 0.992270 -0.233191 0.669307 1.359507 -0.602023 0.207862 -0.100267 -0.534511 -1.496788 -0.566246 0.570653 0.834253 0.972426 1.572904 0.408542 1.780901 -1.733915 0.879409 0.660662 0.723723 2.980866 -1.503941 0.112684 2.450597 0.635074 0.461181 -1.886025 -2.323512 -1.084314 1.455356 -0.264886 0.240532 -0.317025 -1.820601 0.616806 1.191398 -1.773252 0.346320 -2.444927 -0.376726 -2.332288 -3.019067 -0.044529 -0.594085 0.113623 0.474049 0.645920 1.242796 -0.708230 -0.814471 1.642911 -0.799345 -1.448251 -0.397319 -1.305690 -0.233692 2.410020 -0.662470 -0.777272 -0.128641 0.249147 -0.184075 0.169416 1.543172 -0.192618 1.566141 1.767052 1.593153 -0.261765 -1.635116 0.720994 -0.780587 -1.905618 -1.328106 1.917642 -0.133419 0.073591 -0.220882 -0.121305 0.247984 0.692423 -0.558157 0.888906 0.447383 -0.810729 -0.763952 1.015733 0.046415 0.966679 0.487591 -0.142779 -0.138638 -0.397881 -1.013629 -0.826107 -0.631222 0.407190 0.665273 -1.672047 -2.688620 -0.523223 -0.454825 -1.849336 0.934223 -1.649520 1.986279 0.842964 -0.803419 -0.451598 0.193743 -1.630568 -0.477852 0.887476 2.615091 -0.222639 -2.037447 -2.869597 -4.253054 1.366663 -2.916167 -2.205981 0.065154 -0.754994 -0.838043 0.712809 0.294630 0.986628 1.185548 1.348507 1.021846 -0.973494 1.618749 -0.109872 0.995154 -0.080001 -0.034025 -0.164348 -0.884415 -0.694543 -0.261590 -1.058772 -0.548019 -0.627776 -1.130860 1.148510 1.042380 -1.211404 -1.951901 -0.817759 1.568549 0.107964 0.721968 1.923395 1.840178 1.500930 2.133799 -0.374715 0.251316 0.783282 0.688265 
with 0.649395 -0.644399 -0.419446 0.420446 0.830367 0.338533 -0.265069 -0.476199 0.002338 0.392913 -0.003797 -0.732993 0.764357 0.076367 -0.085435 0.077663 0.846799 0.142324 0.098602 -0.962184 -0.838341 -0.798846 0.140428 -1.538481 -0.162772 -0.024944 1.487513 -1.460634 -0.827957 -0.455448 -0.307088 1.320060 0.817784 -2.035061 1.080602 -0.618509 0.820142 -1.445271 0.143418 0.613948 -1.318112 -0.269130 -1.527088 -0.744944 0.465757 0.658335 -1.522931 2.855767 0.862881 -0.099518 0.996073 0.701126 -1.016551 -0.690117 -0.110383 0.479051 0.836874 0.324094 0.411847 -0.188693 -0.258698 -0.801014 1.737603 0.573836 -0.360349 0.305851 -0.173019 1.510352 2.043715 -0.723611 0.832773 -0.915094 -0.051485 0.420909 -0.431607 0.391936 1.652085 -0.140822 -0.071856 0.199816 0.158700 0.672744 0.292314 -0.945879 -0.328396 1.073047 -0.761644 -0.604983 1.201510 -0.791763 -0.552402 0.168265 -1.285354 0.483147 -0.086490 -0.072208 0.461687 -0.209846 0.886128 0.239879 -0.340280 1.681815 1.084044 -1.309713 -0.655228 0.084689 -1.066104 -1.165227 1.328714 -0.312274 1.008992 0.325373 0.363204 1.262697 0.397718 -0.098456 1.031575 0.601442 0.673953 -1.554535 2.032259 0.427020 -2.258112 0.650437 -2.078384 0.186553 -0.824769 -0.661651 -0.407827 0.130011 0.733971 -0.789900 -0.251875 0.324611 -0.229909 -1.308005 1.780970 -0.050559 -0.117141 1.487013 0.755747 -0.553290 -0.812745 -0.971125 0.035557 0.379399 0.453502 0.124608 0.341387 1.603463 0.112990 -0.326323 0.063258 -0.409614 -0.023586 2.121812 1.485340 0.467216 -1.731912 0.168603 -0.020681 0.258281 0.119822 0.915256 -1.872915 -1.396387 0.307981 -0.297185 0.354766 0.885122 0.802927 0.977133 -0.325935 -0.459615 -0.110610 -0.377342 0.872191 0.784311 -0.341253 -0.799950 -0.359944 -0.294061 -0.240953 0.530041 -2.249256 -0.097683 -0.521714 -0.153073 -0.445979 -0.045644 -1.040564 1.096766 0.933530 0.065452 -0.398340 -0.179471 0.906561 1.238309 -0.369300 -0.907744 
on 0.500515 1.490146 0.717349 1.842924 2.130228 -2.083010 -0.539373 0.852730 -0.282963 0.131441 0.403739 -0.656464 -1.491952 0.075181 -1.478484 -0.882248 0.430542 -0.755200 1.096566 -0.135872 -1.199841 -0.637600 -0.888207 -0.477987 -0.001292 -1.259613 2.090254 -2.564162 1.275247 0.507144 0.163569 0.145570 1.061105 0.585986 -0.199727 0.511858 -0.692552 -0.008553 0.493230 -0.348006 -0.806861 1.194990 -1.129791 1.067488 -0.206380 0.843840 -0.167513 -0.871571 -0.622231 -0.666134 1.347544 0.284324 0.204986 -0.385651 0.967087 2.678145 1.266369 0.036631 0.664354 1.019899 -0.481616 0.774226 -0.534081 1.035029 0.099507 0.447277 -1.081084 0.886958 -1.343005 0.882504 0.050306 0.581539 0.482625 0.626714 -1.258595 0.418287 0.714016 0.168158 0.805941 -0.456972 -2.241031 -0.161085 -0.210918 -0.836481 -0.455905 0.445966 -1.093812 -2.023935 -1.109620 -1.423584 -0.212065 0.139995 -0.656157 -0.436858 0.312155 -0.107629 0.520264 0.924641 1.218922 0.076303 0.128042 -1.316989 0.679021 -0.303996 -1.348213 -0.457657 -0.600493 -1.592745 -0.797880 0.215509 0.356594 -1.374002 0.093646 -0.168923 0.613500 0.640621 0.239770 -0.986811 -0.680505 -0.900991 -0.276877 1.998189 0.571232 0.645252 0.114949 0.392361 0.298704 -0.994925 0.720103 -1.045406 1.548748 0.290154 0.464943 0.602729 0.561792 -0.641975 0.905681 -0.700973 1.048890 1.498640 -0.282068 -1.752020 -1.889208 -0.162042 -1.143691 0.958280 -0.030085 -0.490999 0.349781 -1.002809 -0.740117 -0.423731 1.220117 -1.756679 0.529538 1.274782 -0.182433 0.777026 -0.335034 0.083921 -0.369169 0.404243 0.241845 0.161882 -2.163240 0.368759 3.802968 1.202319 0.473449 0.792037 0.827751 -0.040541 0.651381 2.016369 -1.951509 1.003781 -0.413730 -0.251416 -1.980060 0.240737 -0.598224 -0.531854 0.104664 -0.399872 -2.285898 0.260052 -0.484919 0.309394 1.641881 -1.237257 0.245981 -0.598032 2.109195 0.271191 2.099139 1.979071 1.836358 -0.510926 -0.908932 -0.679537 
are 1.301970 -1.010323 -2.416098 1.890775 0.131712 0.488412 -2.620245 1.728651 -2.663755 -0.819751 -0.520277 -0.241233 2.828031 0.267721 -1.231410 1.388646 -1.607151 -0.465383 0.318677 -1.146661 -3.165698 -0.608240 1.538323 -0.337698 -0.477379 0.001873 1.320392 1.050394 0.191297 0.358413 0.242785 0.831098 -1.150212 -1.840982 1.248404 0.920763 0.578953 -1.621101 1.475228 -1.550030 -0.002378 -0.057332 -0.996788 0.962365 -0.883657 -0.365022 -0.358894 0.385960 0.748386 1.444502 0.562702 -2.106379 -0.428093 -0.289174 0.945450 -1.569727 1.745829 -0.066789 0.230112 0.242823 -2.261412 0.892821 0.357434 0.197376 -2.343982 1.001963 1.177503 1.776140 -0.195352 -0.432168 -0.297784 -0.343959 1.622413 0.937273 1.205885 1.208014 1.904164 -0.480927 4.070655 -0.005826 -0.180888 -0.399102 2.202681 -0.715435 -0.512707 1.173568 -0.493355 3.159053 0.579369 -1.196471 0.739082 2.186594 -1.542531 1.300912 0.266079 0.999876 -0.970779 0.214202 0.096065 -1.309995 -0.792527 0.495848 -0.963027 -2.135454 -0.236560 -4.290550 0.389260 -1.012767 1.832851 -0.831981 1.128132 1.977683 1.425460 1.607071 1.465756 -1.878492 -1.405436 0.110726 0.624262 0.834194 1.417492 1.931338 -0.718033 2.115261 -0.579405 -0.033234 -0.410613 0.199629 -0.108398 -0.905023 1.069899 1.121851 -0.306133 1.302646 2.004015 1.624754 0.667930 -0.396783 0.875808 2.603348 -1.796786 1.802671 1.816523 -0.619814 -0.464195 -2.532918 -0.867085 -3.238927 2.042466 0.334981 3.793442 -0.618636 -0.820229 -1.092385 0.269033 4.067368 3.109414 2.077793 -1.019012 -0.047698 0.474006 0.164585 -0.892419 1.309840 -1.151745 1.706450 -0.479516 1.302830 -0.505798 -1.436880 -0.343771 -0.730248 0.486652 -0.084092 -0.471949 -1.071712 -0.032625 -1.856166 0.396156 3.686429 -0.039825 -0.056842 0.396218 0.443140 -0.052972 1.264045 0.980422 1.446981 -0.621576 -1.166481 2.226361 1.572533 -2.039514 -1.992051 -2.711325 -1.295781 -1.434378 2.756112 -0.717733 -0.476874 
it 1.379436 1.165575 -0.443748 0.560995 -0.597586 -0.669801 -0.624145 -0.251335 0.803443 -0.446240 1.077269 1.021438 -1.866319 0.135637 0.932631 -0.943970 1.703664 0.407273 -1.425925 -0.803431 -0.589355 -1.454548 0.874335 -1.420327 -0.091650 -1.129846 -1.034637 -0.080955 0.734790 1.306623 0.844173 0.357778 0.607175 -0.259498 0.833940 -2.508406 -0.397797 -1.153234 1.770743 -1.853658 1.092379 2.264101 0.055370 -0.004701 0.770371 1.174108 -0.526697 0.640852 -0.840234 0.339157 1.600954 -1.226927 -0.994073 -1.269364 0.098570 -0.507881 1.241247 -0.644310 0.169714 0.638397 -1.549557 0.553971 0.605481 -0.738933 1.341727 -0.246564 1.073841 0.267564 -0.167890 -2.975566 -0.182403 -0.156353 -0.301732 -0.312443 -1.094167 -1.486461 0.291369 -0.312910 0.425397 0.325933 0.361557 0.985205 0.210626 -0.621009 -0.494070 1.344507 1.337983 1.119118 0.574913 1.289224 0.022300 0.513023 0.617694 -0.590845 -0.191808 1.151821 -1.234804 1.593404 -1.434385 -0.238771 -0.052755 1.048440 0.811524 -0.650782 -0.950766 -0.115078 1.297174 -1.776354 -0.886107 0.496938 -0.833326 0.020906 0.135771 1.444753 -0.101411 0.294853 0.227801 -0.460054 1.353624 0.113361 -2.663525 -0.278145 -1.680946 -0.065475 0.478793 0.002883 1.297456 -0.291248 0.461662 -0.451720 -0.748304 0.119157 2.059269 -0.894230 0.640406 0.036094 0.618285 -1.460933 0.588382 2.306476 0.879203 -0.895270 0.385644 -0.939938 0.949467 -0.887286 -0.757907 -0.591364 -0.835579 0.777075 1.229648 0.522470 0.475990 0.688270 -0.872503 1.059723 0.338248 2.260954 -0.131243 1.111913 0.911478 -2.226729 -0.864426 -0.232650 -1.401490 -0.354030 1.549086 0.620530 -0.439252 -1.311062 -1.130992 0.693397 -0.058889 -0.030570 0.107159 0.495903 -0.284931 -0.442202 -0.261131 0.546186 -2.599545 0.233760 0.311539 1.541045 -0.588723 -0.551512 1.468920 0.081757 -0.645450 -2.030045 -0.047474 -0.881957 -1.276582 -1.458373 -2.759137 -0.441674 -0.111000 -0.262153 -0.906016 1.053208 
from -1.260975 0.907033 -0.327741 -0.011514 0.404452 -0.230936 -0.450429 0.643938 -0.719523 -1.000191 0.087365 -0.347683 1.225529 0.944647 -0.479608 0.000254 0.660815 0.900431 0.052868 -1.136195 0.651693 0.138382 -1.515369 -1.507187 0.311561 -0.348629 2.594006 -1.980094 1.475961 1.788999 -0.443163 -0.090380 1.990289 0.440329 0.554752 0.027242 -0.490115 0.661264 1.046313 0.452119 -0.647283 0.592107 -2.085363 0.293592 -0.973692 -0.245333 -0.170073 0.474640 0.757628 0.102905 0.619208 -1.068709 -1.725556 0.551432 1.127534 0.358207 -0.106255 2.166033 1.363274 1.009463 0.429971 0.248387 -0.700013 0.228665 -0.639257 -0.058050 -0.305470 1.471768 0.398996 -1.182746 -0.797688 -0.616664 1.098819 -0.189981 -1.431259 0.517345 0.433210 -0.400814 0.053042 -0.713763 0.141667 0.245950 -1.182991 -0.703437 -1.099060 0.436920 -1.064537 0.111295 -0.731648 -2.266305 0.644066 -0.202895 -0.031911 -0.540521 1.546944 -1.240973 0.404458 1.218082 -0.587748 -0.749401 -0.351168 0.745833 0.556595 0.558999 -1.768223 0.233322 0.270228 0.119191 1.449619 -0.661775 1.118438 -0.054518 0.488139 -0.161574 -0.891339 -0.309871 -0.407801 -0.727750 -0.252500 -0.032227 0.194471 -1.060883 -0.917222 -1.209221 1.689924 0.167960 -0.012542 0.042118 0.635011 -0.019609 1.604410 0.780253 -0.824588 -0.464976 2.075052 0.722987 0.213974 -0.610571 1.069787 -0.311140 0.688014 0.278864 -1.544021 0.187012 0.611902 1.296598 0.973223 -1.665776 1.465868 -0.341357 -1.028469 -1.413623 2.125095 -0.339628 -0.160995 0.226392 0.587983 0.013093 -0.747434 0.818189 -1.897048 -0.749133 -0.388574 0.002686 -1.493750 -2.268262 2.007152 0.450822 0.040699 1.132963 0.108554 0.182957 0.830538 -0.356861 0.314299 -0.159433 -0.528543 -0.027127 0.216346 0.446823 -0.102787 -0.350917 -0.984044 0.802969 -0.464565 0.588710 0.191535 -1.419355 -1.938333 -0.296648 0.235744 -0.575464 1.029809 -0.095666 -1.099577 -0.606112 0.430247 0.122328 1.885397 0.173289 
or 1.874051 -0.229329 -1.798096 1.645053 1.800032 0.338373 -2.703222 1.712598 -2.774870 -0.220576 -0.762895 1.192044 0.382158 -0.780952 -0.266822 1.148409 0.565136 0.997637 -1.247070 -0.976833 -1.951458 -1.340762 0.421874 -1.980976 -2.864647 -0.141539 1.171036 -0.348265 0.818435 -0.645695 -1.177046 -0.809031 -1.849380 -0.631867 0.991025 0.562220 0.152035 -1.592174 0.652163 -0.869908 0.939999 0.209771 -0.873399 -0.476975 0.842061 1.180937 -0.138935 0.062256 0.285603 1.271427 0.816185 -0.806596 -1.356502 -0.336945 0.844553 -0.659688 2.127825 0.336718 0.220619 -0.652722 -1.639126 -0.149794 0.788395 -1.015356 0.171550 -0.007314 0.196811 0.096325 0.568988 -1.756589 0.117619 -1.258481 1.806242 0.290699 -0.995892 0.375125 0.829239 -0.337626 2.100279 -0.742567 0.693695 1.011562 -0.450874 -0.038427 0.054292 -0.020268 -0.954114 0.418068 0.657188 -0.240526 -0.532812 1.840847 0.042803 0.257928 0.578386 0.082860 0.454568 -0.047303 0.411634 -1.050675 -0.455510 -0.235470 0.184116 -1.942773 -0.415206 -1.239678 0.676166 -1.047030 -0.192610 -1.291556 0.710675 2.286889 1.010738 -1.059751 -0.373133 -0.383857 -1.366156 -0.176405 -0.158466 -0.220012 0.911649 -0.376456 -0.850113 -0.903448 -0.791726 1.125202 -0.617076 -0.436886 0.834173 0.378314 1.335644 -0.111877 -0.515868 0.463661 0.727657 0.531983 0.072448 -0.112170 1.212092 1.567430 0.753032 -0.699806 1.171179 -1.244035 1.682063 -1.329500 0.323970 -1.296008 0.636420 -0.511620 0.881646 0.434519 -0.299388 -2.416703 0.223287 2.415037 2.696249 1.917275 -0.872077 0.932393 -0.302168 0.269603 0.137054 -0.006452 -0.136690 -0.207252 0.195069 -0.880490 1.335486 -0.768762 1.878911 -1.760723 -0.491925 0.095038 0.527212 -0.089034 -0.272763 -0.316955 0.286204 1.087001 -2.170219 -0.424394 -0.205951 0.449834 0.413410 -1.147035 1.129637 0.225488 -1.449605 -0.786965 0.242732 0.892445 -1.139290 -1.415075 -1.258436 0.382116 -0.088851 -0.312189 0.598899 1.036656 
his -1.757717 1.795637 1.018442 1.151141 0.549411 0.059030 3.575254 -1.485295 3.213536 3.113533 0.455086 -0.325573 -3.608741 -0.480060 1.678621 -0.934803 0.618719 1.430447 0.062158 -1.885145 0.097787 1.031867 -0.135504 0.055145 -3.006604 0.214232 0.446706 -1.833881 1.734726 1.041414 -0.110506 2.497387 1.758288 -1.821436 -1.515557 -1.038136 1.914270 -1.123691 0.961821 -0.579892 -1.412277 -0.414268 -1.793595 -0.121100 2.217212 0.597691 -2.728544 -0.526603 0.603896 -1.699947 -0.530029 -0.053130 0.289378 -0.447879 -0.093499 1.207516 1.336069 0.593104 1.574640 0.690470 -0.154280 2.353398 -1.689756 0.091295 -1.152480 0.841806 1.225277 -1.592663 0.055026 -1.249640 1.322456 -1.459758 1.177065 0.633185 -1.998537 0.608257 0.184917 -0.220637 0.130729 2.458638 0.985166 0.900319 -0.477861 -0.592052 1.600277 0.417234 0.145376 -3.997998 0.211177 -1.306244 -1.280554 -2.201891 1.925456 -0.149205 0.026304 1.054724 -2.451221 1.257536 -0.442944 2.211689 -0.351017 1.506878 1.367585 -1.182480 0.530691 -0.711136 -1.085705 -0.819412 -0.584434 1.533926 -0.180856 -1.214500 1.595315 -1.159449 0.689252 1.786009 -1.841856 -1.793502 1.933180 -1.777317 0.680660 1.230124 -1.458508 -0.710074 -1.689593 -1.513813 0.291916 -0.780056 1.968065 1.205792 -1.786558 0.449451 1.082529 -1.497702 -2.205116 -2.138085 -0.362246 -1.362301 1.308617 1.192442 -0.918835 -0.628555 -0.128919 -0.239842 -0.462561 0.265100 0.158449 2.160376 1.775794 0.695906 -1.029598 -0.763122 1.145836 0.263444 -1.339822 -1.810004 -1.523038 -1.774659 -0.532478 1.810561 1.797124 -1.374938 0.127638 0.625486 0.665342 -3.128744 -1.737887 1.443224 -2.010127 -0.423939 0.996536 1.247172 -0.017194 -0.430597 -2.388747 1.691795 -0.513080 0.182349 -0.399095 -2.427530 -0.075737 0.329316 -0.886537 -1.143514 -0.693015 1.203151 -1.460198 -1.454892 -0.744923 0.193278 -2.868859 0.283762 0.166998 0.280032 1.341604 -0.202912 0.788705 -2.898792 1.550770 -2.030668 
an -0.007366 -0.440007 0.242160 2.032629 2.104844 -0.581051 -0.904125 0.832188 -0.128012 -1.652043 1.337780 0.840127 -0.274443 -0.379046 0.693091 0.388635 0.662231 2.124313 -1.265029 -1.742037 0.233437 -1.707412 -0.116389 -1.135895 -2.665400 -0.939720 -0.223236 -1.330837 0.201758 0.860830 -1.326782 0.217196 0.216782 -1.281637 0.810669 -1.942611 -2.286655 0.306950 0.137003 -0.434099 -0.380715 1.150542 -0.328338 -1.586263 1.517130 1.285996 0.124758 0.006869 -0.048725 1.438795 -0.766903 -0.848393 0.454216 -0.767762 -1.094493 -0.335113 -0.728224 -0.327578 1.642586 0.168757 0.670843 -1.358754 0.084301 0.477127 0.799156 -1.037420 -0.412965 -0.772155 -0.006701 -1.094154 0.741234 -2.298831 0.218735 0.162124 0.665106 -1.191292 0.572583 0.473041 1.288809 0.547739 0.101742 1.703976 -1.159466 -1.077473 1.332689 -0.335091 -1.020215 -1.745877 0.834319 -0.032131 0.281536 1.115678 -1.041119 0.726217 -0.463239 -1.148624 0.494327 -0.365208 -0.183707 0.995924 0.212895 0.604812 0.678233 1.385050 -0.608616 1.778557 0.155688 0.581108 -1.459635 0.869206 0.118004 -0.306666 -0.074686 -2.181941 -0.162490 0.388209 -0.794379 0.876126 0.359996 -0.254400 -1.421875 -1.025561 0.026651 0.238492 -1.940886 -0.615336 0.827311 0.393964 -0.279350 0.423194 -0.169220 -0.958315 0.877570 0.431944 1.379497 -1.025088 0.907491 -1.673537 0.706486 1.531912 -0.258490 -3.265714 -0.350999 -1.374376 -0.016618 -2.307141 0.258503 0.672538 -0.410276 0.144682 -0.603324 0.081499 -0.018283 0.568144 -0.801225 0.973367 -0.056599 0.620863 0.117246 2.126740 -0.266424 -1.956018 -0.355439 0.026770 -0.084993 -0.463744 1.516836 -0.225094 0.988590 -0.751687 0.470201 -1.313123 1.130262 2.134813 0.273778 -1.497077 0.163072 2.111074 -1.799773 -0.914280 -1.610121 0.586635 1.108299 1.462049 -0.644536 0.478114 0.405662 1.246555 -0.829835 -1.049666 0.044619 -1.308572 -0.901461 1.106061 -0.896448 -0.921600 0.947470 -1.014842 0.277116 1.016786 
be 2.009240 0.377583 -1.193082 1.508344 0.818747 -1.569966 -2.014212 -0.824660 -1.024012 1.898303 -0.795437 0.808968 -0.529971 0.349770 -1.213305 1.113042 1.605441 -0.489261 -1.496463 -1.427674 -1.230143 0.398413 2.902742 -1.326844 -0.815834 -2.191964 -0.492197 0.761853 1.297488 0.510553 0.044744 0.318438 -0.869910 -1.259141 1.438794 -1.569466 -0.382642 -2.602666 1.607382 -2.871698 2.328990 1.843203 0.833464 -1.533394 2.224987 1.006335 -1.814271 -2.467117 -1.407499 3.480685 1.375827 -2.582950 -1.549642 -1.088261 -0.645415 -1.711778 1.572193 0.116885 -1.357073 0.773354 -4.112572 0.261971 1.506003 -1.035248 1.255690 -1.315492 -0.179760 -0.499206 0.541489 -2.368722 -0.481392 -0.253044 0.473922 -1.310779 -1.024793 0.433381 0.180984 1.181497 1.136811 0.547592 -0.045081 0.161577 0.066074 -1.172734 0.658333 0.565240 0.371405 1.796739 0.660746 1.471971 -0.970575 -0.381176 -0.020895 -1.448988 -0.365292 0.181839 -1.864653 0.395962 -2.403773 -1.140911 -0.223069 1.989664 -0.727702 -1.297354 -2.424269 -2.622292 0.001908 -1.621642 1.149048 1.728297 0.274133 0.539519 1.641641 0.746374 3.187236 -0.696033 -0.431278 0.276551 1.993274 -0.305561 -0.110047 0.170178 -0.697072 1.075283 1.712963 2.290424 2.590449 0.226465 0.588850 -1.043687 -0.153573 -1.477425 2.599920 -0.092474 1.327083 1.195459 0.804968 -0.702108 1.545566 2.772373 -0.348399 -1.857488 0.503648 -1.459533 1.448021 -0.115797 -0.273504 -1.421514 0.614144 1.887401 1.254542 -1.493712 0.179007 -1.428962 -0.993416 4.197661 1.602105 2.248634 0.374601 2.803120 0.908655 -1.675378 -1.781537 -0.935856 -2.911515 -0.264097 0.080710 -0.902380 -2.549963 -0.910868 -0.324645 1.352276 -0.116970 -0.334361 -1.646077 0.238213 -0.983500 -1.301144 -0.574140 1.674716 -1.350397 1.213177 -2.065857 2.394042 -0.452965 0.825198 2.330766 1.606532 -1.880954 -2.066590 1.370593 -0.254734 -1.660866 -1.402293 -5.227312 -0.403710 0.762284 0.518036 0.456639 1.060956 
this 2.152986 0.529331 -0.944145 1.414886 0.115303 -0.846248 -1.136687 0.789706 -0.956105 -0.078244 1.035018 -0.253493 -0.649056 0.184956 -0.204075 -0.405063 1.552140 0.959022 -1.398106 -2.546483 -0.253446 -0.545086 1.011455 -1.171029 -0.866076 -0.903175 0.677759 -0.771634 0.938578 1.133098 0.636452 1.292929 0.426506 -0.655150 -0.180928 -2.406737 0.407027 -1.127748 0.931774 -0.996569 -0.630371 1.618216 -0.664678 -0.186389 0.645496 0.922746 -0.582066 0.797180 -0.682545 0.256699 0.342002 -1.422133 -1.894992 -0.950336 -1.531499 -0.614823 0.730271 -0.647903 0.284957 0.951715 -1.370713 -0.599618 0.138897 -0.964094 0.372372 0.459719 0.360519 -0.129533 0.140563 -1.702552 -0.666410 -1.417567 -0.846363 0.831068 -0.812760 -1.090681 0.624954 -0.948158 0.440293 0.503403 0.606685 1.836504 -1.269302 -0.981940 -0.207635 -0.856225 -0.243060 0.128494 1.607679 0.769145 0.275351 0.424112 0.000948 -0.636349 0.540493 -0.123252 -0.218296 -0.224441 -0.732616 0.391553 0.170579 1.210346 0.328279 -1.060505 -0.104488 -0.691717 0.110649 -0.909694 -0.518660 1.345907 -0.379494 -0.141632 -0.294019 0.423499 -0.928100 0.963559 -0.753848 0.653645 1.405485 -0.208281 -1.346654 -0.399546 0.057522 -0.665327 -0.353642 0.059607 1.473461 -0.263502 -0.140498 0.535890 1.244896 -0.992186 3.137424 -0.377038 1.874354 -1.421134 0.878768 -1.156639 1.811614 2.284491 0.775269 -1.809949 0.436731 -0.206962 0.160750 -0.502391 -0.806433 -0.000092 0.118957 0.226926 0.155091 -0.246732 1.457476 0.060019 -0.286224 0.673438 0.483920 1.396351 0.047043 1.290470 0.477400 -2.895957 -0.450890 1.089077 -1.627877 -0.509871 2.018957 0.866997 0.178196 -0.545466 0.337940 -0.511536 -0.256546 0.668934 0.252857 -0.189233 0.195515 -0.178766 0.435231 -0.689101 -2.563910 0.398670 1.460465 0.674513 -1.844473 0.365340 0.742222 -0.172800 -0.885163 -1.404070 -0.017411 -2.323711 -2.150624 -1.791353 -1.977605 -0.419036 0.796875 -1.562992 -0.943361 1.362188 
which 1.064193 0.378773 -1.118649 1.885621 0.250850 0.034105 -0.982884 0.387713 -1.093701 -0.095188 0.819827 -0.869268 -1.016303 1.061825 0.470135 -0.533644 0.758727 0.466444 0.733625 -1.260799 -0.547579 -0.856827 0.673886 -1.203503 -0.860700 -0.761677 1.465995 0.608754 0.682009 0.326326 0.546660 1.699697 0.959728 -0.203069 0.154917 -2.096666 -0.818005 -0.344002 1.369786 0.158008 0.762022 2.014786 -1.202344 0.096860 0.284094 1.191044 -0.441169 0.566634 0.225871 -0.021960 0.522406 -0.835234 -1.627576 -0.460290 -0.954295 -0.030525 0.973600 0.158404 -0.195255 0.317246 0.190667 -0.256184 0.429725 -1.455795 0.371463 -0.491905 0.156494 0.775042 1.445809 -1.713800 -1.097922 -1.167050 0.920634 -0.730803 -1.074977 -1.212374 1.391150 0.020672 0.898600 0.780372 0.964872 1.098682 0.079880 -1.750974 0.837102 0.804859 -0.422268 0.456190 1.154062 0.145953 0.200404 1.125195 0.350030 0.341021 0.652107 0.429268 -0.578833 0.392069 0.738926 1.131841 -0.381853 0.892389 -0.791203 -0.565873 -0.114470 0.088110 0.317295 -0.746107 -0.408025 -0.057590 0.191252 0.788974 -0.961603 1.184750 0.021839 0.200435 -0.229727 0.587442 -0.079689 0.813520 -0.754594 -0.599954 -1.747603 0.920932 1.033567 0.862584 0.952863 -0.634894 0.265555 -0.382386 0.032941 0.104402 0.371420 0.435524 0.660321 -1.036044 0.627601 -0.712255 0.476828 2.105697 1.653187 -1.212782 -0.250415 -0.578328 -0.099544 1.144503 -1.056216 -0.366578 -0.066969 -0.064204 0.033069 -0.145930 0.548679 -0.893056 -0.701773 1.257972 1.229154 1.117168 -0.416236 1.289633 0.318356 -2.092833 -1.173816 0.167757 -3.156426 -1.235030 1.921404 -0.604734 -1.593700 -0.279305 0.757864 0.801674 0.091297 -0.470735 -0.324431 -0.336865 0.053789 0.054534 -0.005325 -0.735352 -2.154608 0.732719 1.329627 0.645708 -0.659267 0.920708 -0.256318 -0.121817 -0.415248 -0.756256 -0.311637 -1.054033 -1.032586 -2.545576 -0.870620 -0.564061 -0.235900 -1.560293 0.041939 1.238987 
at -1.362445 0.295540 2.908253 0.169369 2.097527 -0.083471 1.140281 0.032471 0.886562 -1.183839 0.018594 -1.398900 -0.481595 1.634351 -0.429632 -0.120529 -0.318029 -1.293199 1.915664 -0.318050 -0.780080 0.637049 2.070413 -0.819727 -1.132934 -0.549615 1.520481 -1.526314 -1.285483 2.067437 -0.792764 -0.147092 1.448071 -0.256372 -0.550576 -1.789665 -2.338078 -1.909979 0.969631 -0.128907 -1.261323 0.406250 -0.995647 0.611977 1.053777 -0.385552 -1.527331 1.736485 -0.551555 0.480645 1.081061 -2.616480 -0.224705 0.193514 0.734925 2.114812 -0.623610 1.188142 0.733552 -0.397953 0.669334 -0.382109 -0.790284 0.352461 -1.457268 -1.319271 -0.056957 -0.282636 -0.419158 -1.028007 -0.235918 -1.272359 1.258925 0.420527 -1.604925 0.518970 -0.396093 0.931378 -0.850692 0.959909 -0.836473 -0.747568 -2.020917 -0.268563 -1.877751 2.086107 1.150113 -1.317599 0.968044 -1.346187 -0.224639 1.273996 -1.078388 -1.308448 0.842636 -0.459577 -0.960142 0.340534 -1.042252 0.388032 0.040381 0.510431 0.974989 -0.386202 0.394631 1.016278 -0.251989 0.121536 0.773705 -0.782008 0.120571 -2.350589 -1.337359 0.021498 1.132133 -1.258732 0.790551 -0.253848 0.947401 0.186394 -0.137323 0.804691 -1.101280 -1.421141 -1.227722 -0.657651 0.220990 -1.715321 2.041735 -1.113281 -0.198152 -0.430676 -1.108737 1.137842 0.555077 -0.015427 1.065308 -1.109894 0.970901 0.316305 -0.624793 1.276141 -1.541002 0.183109 -0.093786 -1.039548 -0.774818 -1.506732 1.755085 0.341342 -0.995113 0.879476 0.752893 0.218115 -0.191544 -1.022392 -0.451525 0.160894 1.152968 0.816443 -0.701872 1.508291 -0.975844 -1.749751 -2.226599 -0.602937 2.183586 0.228343 0.032729 0.035365 1.240717 -0.392500 -0.347097 -0.048632 -2.120015 1.449629 -1.331506 -0.497438 -0.249071 -1.215116 -1.944083 1.340696 0.315859 -1.095523 -2.467318 -0.017137 2.105122 -1.024101 0.186584 -1.434494 2.437150 -0.322023 0.460002 2.007911 0.436620 0.607140 2.091357 1.703878 1.346068 -1.142843 
he -2.407465 1.990565 2.275539 -0.025139 -0.014618 -1.097359 3.643952 -1.418644 4.058521 2.281581 0.010535 -0.256931 -4.188594 -0.833235 2.582642 -2.091026 0.822887 -0.882139 -0.991354 -0.920488 -1.028924 1.315615 1.705146 -1.075549 -2.196443 -1.649644 -0.814261 -0.825541 1.098721 2.128144 1.017070 1.211732 0.567807 -0.498564 0.032382 -2.590384 -0.284570 -1.220536 1.508373 -1.658828 1.211579 0.874408 -0.534176 -1.136073 0.802258 1.951208 -2.673578 0.244023 -0.242333 -0.758859 -0.530315 0.827158 -0.053273 -0.849466 -0.692845 0.794315 1.665072 -0.009839 1.556565 1.153950 -0.813960 1.640110 -0.437117 -0.367420 -0.089311 -0.127581 0.727032 -1.402453 -1.142801 -1.723129 1.920850 -1.022270 0.747728 0.763143 -2.259156 -0.980752 0.668125 0.950824 0.135916 3.348299 0.887966 1.132686 -0.692146 0.556382 0.545748 1.905643 -0.609515 -2.125281 1.320637 -0.699822 -0.729623 -1.123470 1.614538 -0.419636 -0.763057 1.962246 -2.490187 3.206041 -1.714616 0.512587 1.472587 2.068732 0.683027 -0.452980 0.103367 -0.420800 0.748827 -1.471485 -1.777015 0.669725 -0.173942 -1.722239 1.764342 -0.737832 1.486437 1.502720 -1.050806 -2.369544 2.929085 -1.334140 -0.333238 1.414859 -2.406106 -0.233890 -0.682253 -0.869005 0.490273 -0.617403 2.459164 0.043895 -2.137168 0.739965 1.191047 -0.119009 -0.267312 -1.156126 0.156567 -2.548123 -0.355940 0.314246 -1.243373 0.909085 -0.567071 -0.058782 -0.189550 1.409736 0.794970 1.108547 1.017491 1.469040 -0.631424 -1.502578 1.275951 0.451588 -1.539452 -1.089119 -0.857665 -0.537060 0.279174 1.345847 1.865852 -0.859877 -1.770318 -0.488686 -0.334578 -2.632002 -0.135400 0.221462 -2.293329 -1.320599 -0.169638 2.402489 0.453358 -0.651122 -2.239013 1.673315 -0.594887 0.402025 -0.367690 -1.951610 0.003025 0.861477 -2.265199 -1.028727 -1.170490 1.067122 0.439025 -1.465312 -0.005003 -0.290011 -2.279882 -0.575353 -0.285120 0.306125 0.250417 -0.796470 0.603930 -2.166430 1.662405 -0.288748 
also 0.661210 0.331067 0.019501 1.500656 -0.142697 -0.628266 0.008050 1.195817 -1.267761 -0.120304 0.268364 0.182048 1.130111 -1.683422 0.625155 0.513733 0.184869 1.382586 0.588003 -0.846608 -1.034795 -0.762065 0.179280 -1.019486 -1.138906 -1.335914 0.978281 1.414146 -0.094249 -0.478170 1.154844 0.021734 -0.768976 -0.307817 -0.473705 -0.317213 -0.983906 0.956365 0.333211 0.208593 -0.163505 0.178667 -0.213185 0.301895 0.378619 0.324566 -0.490654 0.264105 0.134470 -0.237443 -0.774928 -0.493675 -0.321944 -0.797785 -1.690194 -0.162840 0.620688 -0.339892 -0.631952 0.488401 -0.914072 0.097621 -0.486655 -1.230485 -1.104860 1.475726 1.276023 -0.061916 -1.174386 -0.938307 -0.226533 -0.164416 0.089858 -0.956253 -0.153461 -0.091351 1.811681 0.718511 0.271887 1.138308 0.210397 -0.229905 -0.541129 -0.777026 1.268062 -0.128818 0.070326 0.626221 0.471148 0.153348 0.653647 1.516484 0.202401 -0.261732 -1.145004 -0.038219 0.322096 0.686436 0.880331 1.186725 -0.791136 -0.275022 -1.202214 -0.140676 -0.009431 0.300243 -0.198278 0.191112 0.164463 0.059779 -0.012576 0.898402 -0.165439 0.717179 -0.222483 -0.063120 0.591069 1.766959 -0.866091 0.964988 -2.268902 -0.303088 -1.173214 0.504908 1.446818 0.651363 -0.315118 0.516722 0.387433 -0.488933 1.095995 0.318876 0.740173 -0.133190 1.085060 -0.452835 0.149072 -0.943761 0.455252 1.106665 1.510749 -0.060886 -0.311305 -0.507103 0.245694 0.289194 1.077645 0.554422 1.941571 -0.272578 0.009334 -0.253085 0.542738 -0.220751 1.104592 1.503450 2.175461 2.095479 -0.893787 -0.435665 0.774138 -1.204470 0.154204 0.120581 -0.827302 0.104165 0.947034 -0.154723 0.332626 -0.298158 -0.210979 -0.102589 -1.100205 0.230892 -1.287659 -0.557316 -0.063896 1.681431 -0.044605 0.149887 0.297998 0.871307 -0.515245 -1.630287 -1.697602 0.347035 -1.391698 1.825683 0.136890 -0.342328 0.100755 -0.405936 -1.065137 -1.069139 -0.697026 -0.588432 -0.186647 -0.816006 0.535980 0.739446 
not 2.094752 -0.987152 -0.127910 0.519513 -0.151252 -0.524737 -1.432692 -0.298213 -0.942090 0.256307 0.357527 -0.666816 0.733635 -0.686553 -1.034455 -1.169274 0.548121 2.281037 -1.014308 -1.057904 -2.590069 -0.051242 -0.079596 -1.565432 -1.673792 -0.288084 -1.321046 -0.008699 1.739270 1.194302 -0.066939 0.480065 0.732775 1.391188 -0.122593 -1.211321 -0.144910 -1.277713 1.072735 -1.831801 0.556568 1.460399 0.352307 -0.528617 -0.976914 0.814481 -0.438531 0.517171 0.305232 1.584534 0.640372 -1.402679 -1.403209 -1.220405 -0.330284 1.035209 4.277152 0.312983 -0.185220 0.405451 -4.003469 0.558539 1.018480 -0.462683 1.162167 1.969978 -1.313131 0.125489 0.485567 -2.679914 1.595348 -0.245677 1.033793 0.873512 -0.326784 -1.769753 0.485553 0.356793 2.628883 0.540189 2.549889 1.148984 1.140533 -0.245549 -0.549988 0.976186 0.779829 1.027949 2.006972 2.403028 -1.212660 0.622744 0.451556 1.053917 -1.743922 0.758174 -1.227346 2.025261 -0.476643 0.837117 1.229891 1.217366 -0.040172 -1.289227 0.373044 -1.666139 0.888237 -1.429321 -2.124282 1.118382 -0.449450 -1.032532 0.711440 1.218632 -0.167322 0.220220 -0.589281 -0.422051 2.768410 -1.899467 -0.645472 -0.565951 -1.845644 -1.427007 0.748440 0.784248 0.905939 -0.417689 -0.559581 -1.255082 -0.965209 -0.356940 3.228327 -1.546870 0.777526 1.013376 -0.138226 0.350961 0.142952 3.745750 0.516892 -1.656179 1.269152 -1.381230 1.825261 -2.480362 -0.313160 -1.248552 0.033019 2.208827 1.498388 -0.380664 0.977244 0.229886 0.890689 1.939950 0.082718 2.280425 -0.317842 0.553908 0.931496 -1.704952 -0.825314 0.177052 -0.163734 -1.481995 0.282018 -0.384379 -0.365751 -1.671851 -0.436261 1.739225 0.073442 0.104537 -0.874889 -1.626771 0.113734 0.507693 1.263462 1.884839 -2.350990 0.712553 0.446097 -0.548185 1.114464 -2.279245 3.067975 0.158036 -0.755542 -1.849736 0.350805 -0.485605 -1.228743 -2.101161 -2.267576 -0.312823 0.740672 0.248430 -1.025706 1.877372 
have 1.385239 -0.677285 -1.059588 1.807753 1.844783 -1.419784 -1.182786 0.708043 -0.782754 -0.554517 -0.517729 -1.163186 1.032606 0.037362 -0.622862 1.130503 -0.725745 -0.428057 -0.161051 -2.879001 -0.944119 1.484520 1.683630 0.578142 0.355197 -1.664980 1.014354 0.067746 1.515739 -0.052341 0.929146 1.140265 0.414727 0.147845 0.702050 -2.112456 1.471243 -1.415757 0.940124 -1.272003 -0.767854 0.751299 -0.458591 1.225111 -0.215997 -1.638263 -2.480169 -0.047229 0.569887 4.262842 1.692959 -2.660271 -2.178724 -0.756228 -0.955953 -0.690813 1.915768 -0.704520 -0.482297 0.319590 -3.935816 2.174998 1.079411 -1.087219 1.505413 1.268114 -0.804836 1.628880 -0.352838 -0.556846 0.376484 0.433073 -0.579348 0.722517 -0.635658 -1.049055 1.957227 -0.840802 0.971216 0.397759 -0.409055 -0.225770 0.094462 -0.356713 0.241590 0.784356 0.025782 2.332551 1.068815 -0.561332 -0.351099 0.570805 1.059182 1.637439 0.808875 3.129851 -1.347873 2.307015 -0.271573 0.174336 -2.281714 1.209481 -0.820149 -0.681985 0.491645 -1.894648 -0.596290 -1.372976 1.157055 0.564468 0.551630 0.211408 0.236970 2.252830 0.643815 0.238181 -1.192502 -0.355740 0.583931 -0.795285 0.041050 -0.553462 -3.074114 0.953506 0.869431 2.399788 -0.072108 0.405640 -0.301463 1.721661 1.787732 -0.230199 1.132702 0.175185 2.592862 -0.064850 -0.407336 0.579376 -0.454731 3.641065 -1.287854 1.796426 0.152766 -2.644114 -0.550513 0.061580 -1.009185 -2.430413 1.127198 2.310396 0.561067 0.244681 -0.094238 -0.866308 -0.208279 2.908499 2.314029 1.494536 -0.390274 0.531037 1.090737 0.075475 0.279157 0.106915 -2.332794 -0.320608 -1.400763 -0.459914 -0.920416 -0.689924 -0.853526 3.044794 -0.062072 -1.056840 0.063940 1.022338 -0.567320 -2.292040 -0.531210 2.471971 0.469449 1.619940 -0.320704 0.803253 -0.919897 -0.558382 1.486439 -1.208908 -1.458590 -3.751078 -0.091037 -0.336571 -1.069082 -0.188284 -1.648969 0.641080 2.428475 2.170394 0.670645 0.674315 
were -1.385754 1.091944 0.781879 -0.341644 -0.817273 -0.920548 0.254677 0.204487 2.056592 1.194049 -0.821157 -0.077525 1.120569 1.851430 -0.065901 -1.244746 -2.106751 -0.741117 0.306872 -1.867327 -0.390567 0.057758 1.985147 2.774680 -0.242942 -0.225400 4.730326 0.211090 0.431712 0.467042 0.114136 2.350205 0.729391 -1.105511 0.898923 -0.312583 0.835082 -0.821119 0.803083 -0.769922 0.697043 0.052049 -2.274619 2.419465 -1.744052 -0.851469 -0.859096 0.109403 0.319634 1.090224 1.991982 -2.223471 -0.800678 -0.172850 0.371358 -0.691549 2.577273 0.331900 -0.104879 0.902768 -1.392383 -0.091157 1.047234 1.240471 -1.960847 0.342834 0.911242 1.170944 0.241294 -2.478929 0.051216 0.866780 2.116494 -0.193139 -0.715924 1.391330 1.073074 -0.332562 2.307217 -0.046277 0.055138 -0.283322 1.341331 -0.717541 1.078649 1.323339 -0.881526 0.542482 1.649555 -1.618496 0.655269 1.915198 -1.256606 1.698684 0.507055 1.337287 -0.083295 1.757128 0.489463 -1.518034 -1.527062 1.430115 0.048384 -1.893749 0.055654 -2.218517 0.368619 -0.161509 1.372303 1.040064 0.823950 -0.559450 1.093020 1.420371 1.347889 -0.911083 -1.428321 -1.043802 -0.032442 -0.276377 1.301619 2.426639 -1.290473 1.564175 -0.672585 0.057740 0.874083 -1.197779 0.139787 -0.296314 1.178565 0.431351 1.066880 2.338186 1.593495 -0.063633 -0.405245 0.695744 -0.111018 2.092093 -1.767699 1.336767 0.857466 -1.356569 -1.513130 -0.562132 0.111155 -1.665993 0.163860 1.628509 1.192953 -0.929657 1.353500 -0.165404 -1.393971 1.508343 -0.766838 -0.726219 0.177045 1.697114 -0.210942 0.726280 -1.290867 -0.136231 -0.020551 0.805610 -1.507759 1.567996 -1.204140 -0.174567 -1.550799 3.363949 0.994078 -2.165139 -0.091514 0.871556 1.307496 -2.744515 -0.619677 1.607681 3.328111 -0.196958 -1.599359 -0.994043 1.643881 3.060582 1.378457 0.497977 -1.763405 -0.306302 0.464258 0.860078 -0.194455 -0.314723 -0.427071 -1.590138 -1.498080 0.794547 0.585944 -2.163740 
has 1.382430 -0.427907 -0.483161 1.630176 1.492071 -0.600240 -0.810543 0.180267 0.520403 -2.152604 0.909380 -0.008918 1.960392 -1.096168 -0.266501 0.320970 0.240376 -1.929811 -2.063508 -2.347651 0.590805 0.052093 2.176907 1.000913 0.771819 -0.433587 0.359669 -0.612326 -0.497382 0.423729 1.344067 -0.344949 0.511319 0.029700 0.335533 -1.983683 2.443280 -0.111206 -1.205751 0.391569 -1.539897 0.962178 -0.753430 1.061365 0.412207 -1.222956 -0.142468 0.543788 0.804070 1.297217 0.581106 -1.526495 -1.866645 -1.511127 -1.143982 -1.362919 -0.355920 -2.223683 1.637358 1.526258 -1.857165 1.997835 -0.539814 -0.099890 1.735483 2.667148 0.567275 1.398184 -0.300706 -2.278883 0.591357 -0.798285 -1.681844 0.955662 -0.954431 -1.796046 3.088862 -1.601909 2.295265 0.196411 -1.364428 0.955763 -0.862388 1.227196 0.541163 0.730088 0.951384 1.550637 0.082180 -0.868430 1.348032 0.441044 0.125453 1.598029 0.714266 1.438415 -0.073645 1.028399 0.751999 1.064346 -2.262454 1.121882 0.055900 -1.137286 0.176260 -0.122875 -0.078427 0.372667 0.410774 -0.864012 -0.072919 0.776494 -0.011537 1.625987 -0.640594 0.231047 -0.130169 0.672444 1.177060 0.404348 -1.683285 -0.862292 -2.061493 1.699206 0.599873 0.062459 -0.675224 0.990145 0.544889 3.064818 2.026010 0.385470 0.039626 -0.711265 1.428923 0.331571 0.395621 -0.361954 0.429484 1.937707 -0.981944 1.020426 -1.378476 -3.534307 -1.486789 -1.131300 1.026989 -2.210587 0.341893 -0.024622 -0.185345 2.112268 0.925315 0.520273 -1.023862 1.108812 1.552569 1.334915 1.481320 -0.900424 0.097485 -0.762541 1.556187 2.275908 -3.902560 0.071263 -0.247357 0.584893 0.418432 -0.444799 -0.786165 0.803531 0.087195 0.715915 0.553484 -0.075720 0.775927 -1.239498 0.150258 1.270961 -0.060879 2.659754 1.458853 2.551368 -2.757025 -1.189641 1.512636 -1.329261 0.777652 -3.530297 -0.039296 -1.285894 -0.708696 1.122216 0.853517 -1.143506 2.390425 0.921272 0.272435 0.251999 
but 0.272286 1.093303 -0.675897 0.034669 -0.235766 -0.263322 -1.111652 0.380791 0.565906 -0.366533 0.634046 0.171545 -1.638630 0.448074 0.452133 -1.777486 0.820578 0.230910 -0.302106 -1.599273 -2.202391 -0.048713 1.067587 -0.605595 -1.603866 -0.579701 0.539412 0.032126 1.103652 0.801773 -0.581970 1.235434 1.009418 -0.276157 0.465051 -1.446915 0.411155 -0.923114 0.041973 -1.479415 0.155451 2.069079 -1.537339 -0.733280 0.108432 0.285157 -1.388880 0.596494 0.780426 1.923382 1.391525 -1.091020 -1.022737 -0.529140 0.430618 -0.123881 2.115726 -0.246094 0.678975 0.535429 -2.609068 0.194693 1.446931 -0.433414 0.618694 0.452645 0.155920 0.884921 0.381197 -2.359134 0.783960 -1.150041 0.300317 0.052468 -1.302598 -1.330668 0.336342 -0.352262 1.233714 -0.104433 1.095040 1.483509 0.090617 -0.385911 -0.725621 1.594137 -0.804346 0.931503 1.383049 -0.185725 -0.869745 0.389182 0.284176 -0.135386 -0.020784 0.907835 -1.368764 1.168930 -0.871616 -0.896915 0.023809 1.427062 0.455850 -1.057467 -0.483750 -0.912250 1.010217 -1.143035 0.875197 0.546260 -0.217684 0.783150 -0.778031 1.532015 -1.078340 0.865971 -1.522177 -0.728197 1.171000 -0.625975 -0.233187 0.424097 -1.716279 0.310110 -0.596607 0.742010 0.052217 -1.181728 -0.175771 0.250392 -0.264008 -0.518962 1.386657 -1.719944 0.409650 -0.258344 0.541351 -0.439523 -0.376484 3.418803 1.435601 -1.065019 0.424803 -1.330893 -0.566153 -0.885531 -0.879317 -1.679454 -0.605664 1.297819 -0.401325 0.307195 0.657399 0.212395 -0.150736 -0.277092 1.127510 0.707526 -0.130666 0.594248 2.003351 -0.322577 -0.077077 0.302828 -1.083593 -0.456987 0.294896 0.411751 -0.822605 -0.899430 -0.288211 2.114090 -0.070996 -1.098879 -0.727658 0.050904 0.196445 -0.886611 1.330930 0.545049 -0.937759 0.847358 0.062880 0.405089 -0.034518 -1.164787 0.975589 0.197116 -0.601924 -1.030262 -0.664855 -0.301075 -1.274025 -0.767471 -1.310561 -0.612655 0.183795 -0.442484 -0.314528 1.202245 
other 2.145667 -0.935194 -1.404771 0.523045 -0.222868 -0.405607 -0.879448 3.253895 -2.433946 -0.694762 -1.857304 -0.986985 0.666058 -0.383182 -0.175589 1.160018 -1.714347 0.401692 1.180698 -1.502168 -1.154769 -0.249641 -0.804467 -1.600939 0.387864 0.132872 1.643424 1.033950 1.252285 0.111929 0.788669 1.740608 0.103907 0.355245 -0.249277 0.420491 0.773651 -0.356324 1.450833 1.216344 -0.393141 -0.736210 -0.353589 0.758756 -1.170448 -1.061373 -1.388932 1.303281 0.313358 0.544090 0.695548 0.059849 -0.814703 -0.177873 0.569017 -0.061642 1.794990 0.914822 -0.374388 -1.162575 -2.296970 1.546498 -0.134794 -0.018553 -3.008442 0.927328 -0.869626 1.376055 0.522140 1.059561 -1.745761 0.766689 1.478419 1.490733 0.234396 0.249371 2.304461 -1.096029 2.867052 0.378415 0.017094 0.843909 0.457153 -0.706035 0.182147 -0.131366 -1.219623 -0.198238 1.428329 0.486964 1.825131 1.323329 0.301515 0.862387 0.951873 1.064720 0.249483 0.882443 1.340455 0.365117 -1.247546 0.152052 -0.142244 -0.932835 -0.135831 -1.755173 -0.352165 -2.195477 0.546329 -1.438902 1.530729 1.592136 -0.203238 1.521633 0.712451 -0.271773 0.380499 0.318952 -0.585582 -0.510455 0.535375 -0.027881 -1.699690 0.337938 0.709503 0.544127 0.134900 0.547174 -1.055255 -0.182712 0.753626 0.235241 -0.898959 0.941744 1.142037 -1.959774 0.382105 -0.623705 -0.304155 2.232959 0.121919 1.194636 0.590367 -1.226423 0.695813 -0.751504 0.367759 0.860918 1.831321 0.843221 2.593047 -0.384546 -0.199069 -2.335421 0.341004 1.293982 2.748416 2.527328 -1.566823 0.098196 1.155339 -0.985631 -0.016369 0.666464 -0.079802 -1.255797 -0.181608 -1.402692 0.195572 -0.355884 0.246441 -0.446737 0.761248 -0.661000 0.978390 -0.374699 -0.101448 -0.218242 0.000945 2.006655 -0.263727 -0.907757 -0.164148 -0.502454 -0.341413 -0.181196 0.657021 1.242043 -1.213769 -1.521467 0.786225 1.511338 -0.398530 -3.091089 0.452844 -0.034063 -0.787247 1.161020 -0.371430 0.637532 
their -0.395061 0.818651 -0.999768 0.806076 1.068232 -0.054369 -0.770317 1.169741 -0.083410 0.541953 0.498848 -1.509471 -1.094863 -0.464184 0.371177 -0.733975 -0.422204 1.970209 0.064877 -1.676477 -0.731402 -0.437202 -1.374099 -0.872004 -2.135455 0.929782 3.609273 -1.610714 1.720627 -0.231711 -0.954853 2.364578 1.217600 -0.421240 -0.609358 -0.835721 1.847952 -0.946111 1.025147 -0.306390 -1.665592 -0.514786 -1.865413 2.259608 -1.729127 -0.704303 -1.440867 1.326929 0.209099 -0.285783 0.914894 -0.671390 -1.059582 -0.445955 0.893714 0.171966 3.242447 0.295556 -0.224140 0.133849 -3.179005 1.867899 0.100172 1.188065 -1.153874 -0.583851 0.443822 0.888233 1.602517 -2.028480 -0.624326 1.325535 3.641392 1.276952 -1.021168 0.821564 0.772740 -1.579941 1.697071 -0.501860 -0.840986 1.880338 -0.246653 -0.906298 1.555615 -1.110365 -1.006500 -1.029999 0.692884 -0.247210 -0.102161 0.302443 0.303093 0.726343 1.415334 -0.173903 -1.506486 0.476130 -0.005631 0.407161 -2.197611 0.907727 -0.141334 -2.117476 -0.174554 -2.452343 -0.503111 -1.128167 -0.021893 1.662315 0.429332 1.905091 0.210162 2.753152 0.397009 -0.697617 -2.199436 0.114169 0.201993 -0.743617 1.520389 1.425603 -2.742857 0.443742 -0.225333 0.525732 0.338707 0.675834 -0.982878 -0.111831 0.369514 0.294367 1.088808 1.127843 -0.597725 -0.324191 -0.279392 0.739854 1.259785 3.206607 -0.754250 0.684846 1.312213 1.377904 1.092439 -1.324240 0.080544 1.831188 1.665276 0.794400 0.153795 -0.628106 2.655239 -2.178720 -0.061095 2.580339 2.005072 0.631419 -2.535144 1.357090 1.461035 -1.251018 -0.947481 0.056151 0.961779 -1.759779 -1.129446 1.345291 -0.223134 -0.607374 1.261554 -0.048247 -1.560062 -2.719275 -0.067563 0.704692 -0.378557 0.217167 -0.661312 0.026287 -0.000449 0.333805 0.501369 -0.372003 -0.384218 -1.213759 -0.934152 -0.102922 -3.079151 -1.211067 -0.976305 -0.695421 0.402664 -0.600537 -0.300965 0.390850 -0.287197 -1.671577 -2.444909 -1.988344 
its 0.614399 -0.111083 -0.128729 0.421679 0.321006 0.883151 -0.458338 0.412944 -0.339793 -0.442927 2.005137 0.255142 -1.047088 0.449927 -0.253923 -1.194767 1.465731 0.342274 -0.134623 -1.536993 1.797930 -1.392658 -0.677529 -0.643521 -0.497654 1.193740 1.544968 -0.958290 0.621738 0.285456 -0.609210 2.182298 1.600212 -1.326373 0.467182 -0.424161 1.023149 0.134732 0.983396 1.110548 -2.568485 -0.132059 -1.833842 1.827003 -0.909754 -0.412623 -0.554739 0.093598 0.368810 -0.905086 0.787204 -0.733417 -0.591922 -0.844828 -0.842406 -0.634450 -1.056526 -0.891421 1.580350 0.895993 -0.904595 0.174314 -1.263587 1.087802 0.550433 -0.071697 1.132043 1.146064 1.163089 -3.814475 -1.609653 -0.980897 0.987391 -0.691906 -0.672620 0.388725 -0.410608 -2.605849 1.939327 0.060204 -2.131363 1.973102 -0.101469 -1.450626 2.062863 0.735438 1.040840 -1.008827 -0.161078 -0.875216 0.248334 -0.320065 -0.787472 0.347727 0.793269 -1.244813 -0.629471 -1.126816 -0.181659 1.082642 -1.294568 0.298385 0.697473 -0.506503 -0.602278 -1.263587 0.536891 -0.481021 -0.622308 0.579538 0.273079 1.686129 -0.888720 2.328747 -0.534779 -0.893546 1.526366 1.354846 1.291174 1.109961 -2.059263 0.799128 -1.839838 -0.328878 2.117485 -0.777119 1.191602 0.977973 -0.213589 0.114186 -0.023392 0.351618 0.422951 0.467073 -0.256283 -0.483774 -0.658080 -1.062406 1.312814 2.186571 1.079382 -0.858021 0.182136 -0.340292 -0.481892 -1.000384 0.468905 0.637020 -0.220849 0.655337 0.050447 1.640669 2.361948 0.491578 0.442514 0.597946 -0.122706 0.080437 -0.994855 -0.073228 -0.463191 -2.745033 -0.051665 0.610048 -3.356524 -1.270325 0.345656 1.466063 0.085963 -0.636937 0.352863 -0.761412 -1.294387 -0.146968 0.776361 -0.003997 -0.855397 -0.022491 -0.526580 0.331187 -1.049905 1.290175 1.840090 2.807466 -0.144680 -0.968013 -0.382207 1.190683 -1.035022 -2.235851 -1.211605 0.259008 0.023639 -0.895970 -0.954752 -0.688054 1.524951 -1.369845 -2.357504 -0.189042 
first -0.514747 0.283323 0.735031 0.070384 -0.231544 -1.429831 1.075486 -1.288871 2.113128 0.664274 0.656278 -1.084920 -0.188269 1.146887 1.878514 -0.487529 -0.554766 -0.107305 0.614176 0.566788 -0.568588 1.555613 -1.040347 -0.421626 -0.304218 0.086354 0.468326 -0.567738 -0.973473 1.112101 1.587713 0.106026 0.143078 0.141184 -1.302796 -1.129614 -0.770245 -0.466735 0.969300 0.692703 2.309559 -0.321432 -0.716756 -0.449412 0.685024 0.978539 -0.043493 0.350768 -0.057584 -0.629583 0.535204 -0.913246 0.801387 -1.128855 0.389331 1.440508 -0.273594 -0.304257 1.063553 1.319638 2.405034 -1.793182 -0.172396 0.910214 -0.926276 -1.174151 -1.829149 0.144438 -0.057658 -1.553361 0.345506 0.726438 -0.484169 -1.241621 -1.522774 -0.708740 1.673985 1.191748 0.161268 1.190567 -1.517633 -0.037416 -1.021673 -0.998741 0.097956 -0.100412 1.465839 0.582954 0.735586 0.131848 0.234345 0.840081 -0.626349 -0.497130 -0.396065 0.856862 2.912391 0.408675 -0.720393 0.714760 0.873857 0.646993 0.536062 -0.077868 0.943162 1.135799 1.056108 0.962618 -0.892353 0.783121 0.634121 0.196977 -1.674450 -1.464756 0.605594 0.365822 1.719877 -0.124189 0.056616 -0.310387 -1.493714 -0.139621 0.296016 -0.960105 -0.845283 -0.208193 2.084007 0.364933 -0.282357 0.301771 0.462825 0.107343 2.346956 0.078804 0.530628 -2.223497 0.074013 -0.252355 0.170227 -0.011693 0.818173 -0.928460 -0.378791 -1.532980 -0.300220 0.669604 0.167352 0.101475 0.861388 1.670652 0.466233 -0.648800 0.276284 0.405236 -1.386533 0.473337 -1.506120 -1.337621 0.109736 -0.411536 -2.179458 -2.968018 -1.538072 -0.752653 -1.527915 -0.173393 1.219941 0.982765 0.635252 -0.577101 0.372823 -0.031065 -0.622740 1.123484 -1.080785 -1.162401 -0.112970 0.268877 0.100724 -0.841841 -0.520974 0.950744 0.389434 -0.803849 -0.352246 2.684187 -0.073691 -1.772904 -0.542447 -0.462950 -0.881204 -1.522963 1.351645 0.865919 2.064092 -1.174029 0.419272 -1.394530 0.115762 -0.998139 
they 0.464808 1.072127 -1.280748 -0.073568 0.012317 -1.344286 -1.210172 1.252619 1.689127 -0.069856 0.846521 -2.222148 -1.200082 0.271906 1.054237 -1.520615 0.406838 0.942477 -1.616281 -1.430816 -2.780643 -0.894122 0.801960 -0.376643 -1.263424 -0.081752 1.031868 -0.339150 1.287947 0.338680 -0.536021 1.294434 -0.265452 0.973293 1.121359 -2.416179 -0.276207 -1.502751 1.847239 -1.498456 1.289249 1.367053 -1.050953 1.013908 -1.498755 0.983686 -0.217248 1.569647 -1.046187 0.970965 1.086546 -0.458323 -0.472452 -0.541626 0.879981 0.407739 4.191016 -0.120916 -0.483022 0.058086 -3.174321 1.672038 1.659442 -0.552700 -0.221814 -0.372749 0.015333 1.494475 1.501002 -2.964225 0.089203 1.497655 2.885341 1.636996 -0.199417 -0.818765 0.906015 1.100810 1.228899 0.472657 1.089559 1.398359 0.673504 0.630295 -1.415389 0.582660 -2.029763 1.101472 1.405687 0.067276 -0.535320 2.422848 -0.154584 -0.143124 0.167776 0.107588 -0.824859 1.236225 -0.489415 -1.208896 -0.353807 1.052148 -0.668692 -2.318919 -0.423783 -1.412954 0.877178 -1.301693 -0.620788 1.476089 -1.154775 -0.159895 1.023536 2.592107 -0.102024 -0.560437 -2.963667 -1.314937 1.486667 -1.116407 0.658195 0.842022 -2.869971 0.718916 0.210759 0.517913 0.468919 -0.762803 -0.531347 -0.848661 -0.428479 -1.023458 2.157335 0.651113 0.864780 -0.018049 0.718325 -0.134744 0.493724 1.423464 -0.793690 1.160603 1.070686 0.805287 1.758157 -1.681253 -1.009152 -0.250884 1.166489 0.109352 0.268635 -1.932736 1.278142 -1.956853 -1.850150 2.637047 0.839056 2.612299 -1.193470 0.781798 1.201197 0.257922 -2.138598 -0.249500 0.952735 -0.895842 -0.981748 0.726025 -0.285679 -1.831744 -0.962399 1.648160 -0.816994 -2.254062 -0.888903 0.767622 -0.788643 0.091227 1.051828 0.990310 -1.536713 0.192033 -1.066489 -0.877997 -0.196885 -1.277321 1.580839 -0.478414 -2.442780 -1.067426 -0.182299 -1.666027 -0.085220 -1.499959 -0.537030 1.345147 -0.870037 -0.689882 -1.949058 0.248660 
some 2.857773 0.011735 -1.263834 0.683634 -1.469754 -0.782980 -1.872200 2.862379 -1.711037 -0.843592 -0.666986 -0.496294 0.324833 -0.755696 -0.287378 0.541654 -0.790907 2.093560 -0.233934 -2.454200 -1.991293 -0.656923 0.166191 0.682053 0.230610 -0.776468 1.782373 1.315280 0.839269 1.267464 1.063186 2.201968 0.174356 0.192291 0.081796 -1.075278 0.753539 -1.150413 1.752090 -0.381727 0.536816 -0.655891 -0.872524 1.333886 -1.066045 -1.263532 -1.759219 1.411388 -0.376588 2.271902 -0.067351 -1.585308 -1.285263 -1.275175 -0.499738 -0.270837 1.730265 0.094298 -1.087105 -0.688193 -1.891928 1.441730 -0.095744 -1.001544 -0.407308 0.489885 0.532862 2.277487 -0.260040 -0.945585 -1.645977 0.481459 0.446906 1.316339 0.143281 -0.862756 1.657818 -0.036442 2.443552 1.068171 -0.373875 1.389948 -0.223419 -0.816909 0.519273 -0.475845 -1.198710 -0.155924 1.566379 0.681128 0.436118 1.389155 0.283068 0.809859 0.869616 2.297964 -0.289321 1.451141 -0.239124 1.594961 -1.432862 -0.291139 -0.491086 -0.543388 -0.731549 -0.949207 -0.569692 -1.859296 0.352090 -0.589303 0.008079 1.078110 1.218431 1.580293 -0.772269 -0.108975 -1.999837 -0.007671 0.911579 -0.125879 -0.274994 1.014623 -1.420972 0.020299 0.254755 0.495669 -0.770844 0.003904 -0.114032 1.353366 0.450517 -0.670980 0.739769 0.652900 1.414656 -1.497856 0.254728 -0.012519 1.381527 2.911589 0.393545 0.057288 1.083695 -0.354262 0.652261 -0.196328 -0.541032 -0.165908 1.767436 0.754352 1.459120 0.923404 0.472490 -1.046201 1.220081 0.967930 1.605447 1.752924 -1.396205 1.549216 -0.512306 -1.097201 0.289395 0.722638 0.222526 0.547916 -0.191938 -0.362212 0.933606 -2.164102 -0.892968 0.197025 0.242189 -0.920839 0.631646 -0.871591 0.758734 0.784283 0.692310 1.356569 -0.084233 -0.875756 0.323554 -1.532660 -0.435388 -0.100123 0.033655 -0.295002 -2.298930 -1.300946 1.254843 -0.270085 -1.335594 -2.451943 -1.390307 0.668614 -0.018586 0.964144 -0.962797 0.879940 
had -2.387830 0.922242 1.719795 -0.218691 0.884153 -1.158735 1.312992 -1.295091 3.898679 0.434770 0.114693 0.200124 -0.187369 0.590238 1.453619 -1.453678 -0.105196 -1.904930 -1.100603 -2.451636 0.604702 0.678124 1.850016 2.479271 -0.838607 -0.499919 2.391704 -2.523071 0.898256 0.082131 0.356744 0.803475 1.265161 0.112406 -0.426347 -2.421461 1.710274 -0.763715 -1.167638 -1.819345 -1.565461 0.958518 -1.515735 1.272616 -1.172499 -1.359765 -1.638736 1.302033 0.627964 0.399284 0.106441 -1.239112 -0.933791 -0.155963 -0.355652 -0.187452 1.652646 -1.221936 1.228433 0.797301 -1.384018 1.297806 0.765854 -0.140960 1.234280 3.008560 0.376360 1.186917 0.042235 -3.021155 1.800554 0.895190 1.090138 0.922877 -1.941176 -0.527656 1.706259 -0.435644 0.458460 0.445035 0.983970 0.074001 -0.206786 1.701697 0.232086 1.057363 -0.909009 0.103616 1.439966 -1.739629 -0.705660 -0.242851 0.755816 1.319149 0.446363 1.071036 0.448873 2.599807 0.306881 -0.700452 -1.243772 1.785229 0.820828 -1.721873 0.370887 0.913307 -0.179418 0.383316 0.258024 0.810461 -0.090579 -1.176787 0.130283 0.330712 -0.034505 0.377800 -1.407934 -1.284050 1.161639 -1.201488 0.186288 0.550757 -3.946762 0.372714 -1.318759 -0.669892 -0.240730 -0.261185 0.717144 2.981050 1.502276 -0.093094 1.220685 0.455278 1.090013 -0.615282 0.353883 0.921566 -0.291985 1.595023 -1.683942 0.828782 -1.168567 -2.820275 -1.166597 -0.414848 -0.008414 -0.778994 -0.750995 1.487330 -0.270066 0.848082 0.978889 0.035851 -2.204432 -0.364087 -2.094873 -1.542174 1.665780 1.105107 0.345293 1.321746 -0.406293 0.359062 -0.724034 -0.669098 -1.950442 2.036302 -0.117411 0.007127 -0.254923 4.120015 0.394933 -1.370654 -0.027104 2.615624 1.445822 -2.694889 -0.031148 -0.125611 1.215259 0.318473 -1.632387 0.067602 -0.998080 0.276522 2.330881 -2.371043 -0.321025 -1.510961 -1.638063 -0.096526 1.169652 1.850016 2.496671 -0.035004 1.394334 -0.120556 1.211363 -1.423209 
all 1.455310 -0.011009 -0.682732 1.070315 -1.050302 0.783018 0.140487 0.884672 -0.630594 0.203650 -0.537362 -0.468029 0.642999 -0.103035 0.295491 0.455335 -1.393539 0.591958 1.802952 -0.732761 -1.237735 0.010752 0.050553 -1.295383 0.200517 0.009430 0.967280 -0.892350 0.662984 0.501285 -0.177000 0.930251 -0.178826 -0.562757 -0.525314 -0.588612 0.416997 -1.455744 1.638667 -0.505692 0.169767 0.775215 -0.532230 0.552001 -1.768385 -0.055863 -2.195350 2.230867 0.985277 0.913506 -0.025133 -0.870762 -0.947058 -0.540053 0.473500 0.506850 1.696870 0.148777 -0.068080 -0.403767 -2.541169 1.084871 -0.305243 0.267652 -0.859222 -1.493448 -0.544909 -0.225067 0.390987 -0.515196 -1.447263 -0.268635 1.456096 0.772145 0.254833 -0.474610 1.077769 -0.404688 2.213652 -0.544790 -0.848252 0.488070 1.604859 -1.400682 -0.731543 0.481036 -0.829960 1.734191 1.745988 2.349865 1.583291 0.581022 0.216860 0.362061 0.787175 0.585219 -1.578278 1.407789 0.309970 0.190867 0.518032 -0.247545 -0.291170 -2.285711 -0.373451 -0.876933 -0.159456 -0.589937 -1.415338 -0.366152 0.668977 0.743578 1.231502 2.354325 1.457671 -1.866758 -1.539287 -0.380084 -0.417346 -0.514241 -0.826298 -0.211895 -2.717513 0.852367 0.990474 1.922289 0.524644 -1.046255 -1.607177 -1.410332 -0.061870 -0.499992 0.770174 0.652505 0.364098 -1.219721 0.798511 -0.900662 -0.000973 2.587089 -0.525668 -0.271034 -0.213225 -0.147651 0.301249 0.291133 0.352973 0.361360 0.939951 0.591880 1.538461 -1.789947 -0.756805 -0.806606 -1.077437 1.786446 0.508042 -0.217220 -0.601825 1.538674 -0.613400 -1.436146 -1.035839 0.332546 -0.048130 -0.377401 2.653048 1.093584 0.738554 -0.812351 -0.423237 -0.114720 -0.810112 0.206353 0.175836 -0.124910 -0.413111 -0.089844 0.960882 2.559007 -1.371248 0.402123 1.410227 -0.107458 0.216988 0.746807 -0.087329 -0.239875 -1.513437 -0.086050 0.685295 0.401177 -0.709709 -1.360523 -0.148253 -0.147226 -0.196533 0.148776 -0.804477 0.032859 
more 2.899647 1.453190 -1.009210 -1.127759 0.010439 0.245653 -3.001293 3.992604 -2.367980 -1.388281 -0.262342 0.424239 2.170599 -1.216029 1.522276 0.582344 0.625170 -0.947458 -1.039393 -0.984390 0.647085 -1.285008 1.210622 1.045866 0.815392 -0.686996 1.254982 0.551448 1.344867 1.361982 -1.594241 1.683415 1.120808 0.183813 1.590988 -0.051211 0.043814 -0.630554 2.739546 -0.456242 -0.970665 1.218416 -1.054159 -0.586604 -0.871700 -0.824098 -1.182992 0.105933 -0.283736 0.054467 0.269216 0.219193 -0.002327 -0.339947 0.377465 -0.326674 1.318684 0.012967 -0.278948 1.946514 -1.260304 0.295702 3.348906 -0.018430 -1.600073 -0.513002 0.663951 -0.064885 0.694180 -0.957026 0.332550 -0.221190 1.032302 0.558922 -0.477143 -1.620216 2.863752 -0.614929 1.810379 1.045857 -1.319617 1.124409 -1.860805 0.224455 -0.527053 -0.096477 1.362541 1.759526 -0.398876 -1.322569 0.302632 -0.306099 -0.697446 1.323820 0.447644 1.384490 -0.572671 1.388241 0.493658 -0.301006 0.216979 0.001668 2.913093 -1.754197 0.181619 -2.783894 0.025526 -1.939462 1.280377 -0.037263 -1.087430 0.284479 -1.718667 2.637974 0.481064 0.724091 0.199169 -0.262764 -1.456474 1.133981 0.402317 -1.411374 -0.477897 0.421763 -1.238591 -0.439303 0.125468 0.540672 -1.584978 2.094272 0.405522 -2.122263 1.983093 0.107581 0.086157 0.392968 1.471859 -0.773541 0.199967 3.538266 0.574233 -0.219936 -0.343398 -2.382197 1.809948 -2.144738 -3.152560 0.809954 0.124986 0.455388 1.913582 0.905361 -1.300668 -0.267744 -0.988157 0.153903 -0.430064 2.524734 -1.935413 -1.657543 1.269523 -2.705246 0.666427 0.212848 0.936559 0.364788 0.283147 -1.498862 -2.168721 -1.580706 -1.197653 -0.122324 1.456661 -0.473812 -0.203433 -1.308308 0.719680 0.470382 -0.700412 0.496016 -1.356762 1.844289 -0.960143 -0.966457 -1.069050 -2.235301 -0.719674 -0.535791 0.580797 -2.360246 -0.061666 0.353437 -2.628709 -0.439869 -1.969133 2.153413 -1.434588 1.260286 -0.135809 0.673158 
